<?xml version="1.0"?>
<opencv_storage>
<opencv_ml_ann_mlp>
  <format>3</format>
  <layer_sizes>
    8 60 60 60 60 62</layer_sizes>
  <activation_function>SIGMOID_SYM</activation_function>
  <f_param1>1.</f_param1>
  <f_param2>1.</f_param2>
  <min_val>-9.4999999999999996e-01</min_val>
  <max_val>9.4999999999999996e-01</max_val>
  <min_val1>-9.7999999999999998e-01</min_val1>
  <max_val1>9.7999999999999998e-01</max_val1>
  <training_params>
    <train_method>BACKPROP</train_method>
    <dw_scale>1.0000000000000001e-01</dw_scale>
    <moment_scale>1.0000000000000001e-01</moment_scale>
    <term_criteria>
      <epsilon>0.</epsilon>
      <iterations>300</iterations></term_criteria></training_params>
  <input_scale>
    2.9927465093325116e-03 -2.1882682219041127e+00
    3.0689252695461568e-03 -2.0778728187470481e+00
    3.8009362956216691e-03 -2.3693180891323009e+00
    3.2829582998300734e-03 -1.8898805114408082e+00
    8.0859066254684744e-04 -2.3623625242289461e+00
    8.1152248736417372e-04 -2.5530483881866748e+00
    8.7023073700069652e-04 -1.3794466893272579e+00
    9.4476071638399596e-04 -2.0026810164999653e+00</input_scale>
  <output_scale>
    5.2631578947368418e-01 4.9999999999999994e-01 5.2631578947368418e-01
    4.9999999999999994e-01 5.2631578947368418e-01 4.9999999999999994e-01
    5.2631578947368418e-01 4.9999999999999994e-01 5.2631578947368418e-01
    4.9999999999999994e-01 5.2631578947368418e-01 4.9999999999999994e-01
    5.2631578947368418e-01 4.9999999999999994e-01 5.2631578947368418e-01
    4.9999999999999994e-01 5.2631578947368418e-01 4.9999999999999994e-01
    5.2631578947368418e-01 4.9999999999999994e-01 5.2631578947368418e-01
    4.9999999999999994e-01 5.2631578947368418e-01 4.9999999999999994e-01
    5.2631578947368418e-01 4.9999999999999994e-01 5.2631578947368418e-01
    4.9999999999999994e-01 5.2631578947368418e-01 4.9999999999999994e-01
    5.2631578947368418e-01 4.9999999999999994e-01 5.2631578947368418e-01
    4.9999999999999994e-01 5.2631578947368418e-01 4.9999999999999994e-01
    5.2631578947368418e-01 4.9999999999999994e-01 5.2631578947368418e-01
    4.9999999999999994e-01 5.2631578947368418e-01 4.9999999999999994e-01
    5.2631578947368418e-01 4.9999999999999994e-01 5.2631578947368418e-01
    4.9999999999999994e-01 5.2631578947368418e-01 4.9999999999999994e-01
    5.2631578947368418e-01 4.9999999999999994e-01 5.2631578947368418e-01
    4.9999999999999994e-01 5.2631578947368418e-01 4.9999999999999994e-01
    5.2631578947368418e-01 4.9999999999999994e-01 5.2631578947368418e-01
    4.9999999999999994e-01 5.2631578947368418e-01 4.9999999999999994e-01
    5.2631578947368418e-01 4.9999999999999994e-01 5.2631578947368418e-01
    4.9999999999999994e-01 5.2631578947368418e-01 4.9999999999999994e-01
    5.2631578947368418e-01 4.9999999999999994e-01 5.2631578947368418e-01
    4.9999999999999994e-01 5.2631578947368418e-01 4.9999999999999994e-01
    5.2631578947368418e-01 4.9999999999999994e-01 5.2631578947368418e-01
    4.9999999999999994e-01 5.2631578947368418e-01 4.9999999999999994e-01
    5.2631578947368418e-01 4.9999999999999994e-01 5.2631578947368418e-01
    4.9999999999999994e-01 5.2631578947368418e-01 4.9999999999999994e-01
    5.2631578947368418e-01 4.9999999999999994e-01 5.2631578947368418e-01
    4.9999999999999994e-01 5.2631578947368418e-01 4.9999999999999994e-01
    5.2631578947368418e-01 4.9999999999999994e-01 5.2631578947368418e-01
    4.9999999999999994e-01 5.2631578947368418e-01 4.9999999999999994e-01
    5.2631578947368418e-01 4.9999999999999994e-01 5.2631578947368418e-01
    4.9999999999999994e-01 5.2631578947368418e-01 4.9999999999999994e-01
    5.2631578947368418e-01 4.9999999999999994e-01 5.2631578947368418e-01
    4.9999999999999994e-01 5.2631578947368418e-01 4.9999999999999994e-01
    5.2631578947368418e-01 4.9999999999999994e-01 5.2631578947368418e-01
    4.9999999999999994e-01 5.2631578947368418e-01 4.9999999999999994e-01
    5.2631578947368418e-01 4.9999999999999994e-01 5.2631578947368418e-01
    4.9999999999999994e-01 5.2631578947368418e-01 4.9999999999999994e-01
    5.2631578947368418e-01 4.9999999999999994e-01 5.2631578947368418e-01
    4.9999999999999994e-01</output_scale>
  <inv_output_scale>
    1.8999999999999999e+00 -9.4999999999999996e-01
    1.8999999999999999e+00 -9.4999999999999996e-01
    1.8999999999999999e+00 -9.4999999999999996e-01
    1.8999999999999999e+00 -9.4999999999999996e-01
    1.8999999999999999e+00 -9.4999999999999996e-01
    1.8999999999999999e+00 -9.4999999999999996e-01
    1.8999999999999999e+00 -9.4999999999999996e-01
    1.8999999999999999e+00 -9.4999999999999996e-01
    1.8999999999999999e+00 -9.4999999999999996e-01
    1.8999999999999999e+00 -9.4999999999999996e-01
    1.8999999999999999e+00 -9.4999999999999996e-01
    1.8999999999999999e+00 -9.4999999999999996e-01
    1.8999999999999999e+00 -9.4999999999999996e-01
    1.8999999999999999e+00 -9.4999999999999996e-01
    1.8999999999999999e+00 -9.4999999999999996e-01
    1.8999999999999999e+00 -9.4999999999999996e-01
    1.8999999999999999e+00 -9.4999999999999996e-01
    1.8999999999999999e+00 -9.4999999999999996e-01
    1.8999999999999999e+00 -9.4999999999999996e-01
    1.8999999999999999e+00 -9.4999999999999996e-01
    1.8999999999999999e+00 -9.4999999999999996e-01
    1.8999999999999999e+00 -9.4999999999999996e-01
    1.8999999999999999e+00 -9.4999999999999996e-01
    1.8999999999999999e+00 -9.4999999999999996e-01
    1.8999999999999999e+00 -9.4999999999999996e-01
    1.8999999999999999e+00 -9.4999999999999996e-01
    1.8999999999999999e+00 -9.4999999999999996e-01
    1.8999999999999999e+00 -9.4999999999999996e-01
    1.8999999999999999e+00 -9.4999999999999996e-01
    1.8999999999999999e+00 -9.4999999999999996e-01
    1.8999999999999999e+00 -9.4999999999999996e-01
    1.8999999999999999e+00 -9.4999999999999996e-01
    1.8999999999999999e+00 -9.4999999999999996e-01
    1.8999999999999999e+00 -9.4999999999999996e-01
    1.8999999999999999e+00 -9.4999999999999996e-01
    1.8999999999999999e+00 -9.4999999999999996e-01
    1.8999999999999999e+00 -9.4999999999999996e-01
    1.8999999999999999e+00 -9.4999999999999996e-01
    1.8999999999999999e+00 -9.4999999999999996e-01
    1.8999999999999999e+00 -9.4999999999999996e-01
    1.8999999999999999e+00 -9.4999999999999996e-01
    1.8999999999999999e+00 -9.4999999999999996e-01
    1.8999999999999999e+00 -9.4999999999999996e-01
    1.8999999999999999e+00 -9.4999999999999996e-01
    1.8999999999999999e+00 -9.4999999999999996e-01
    1.8999999999999999e+00 -9.4999999999999996e-01
    1.8999999999999999e+00 -9.4999999999999996e-01
    1.8999999999999999e+00 -9.4999999999999996e-01
    1.8999999999999999e+00 -9.4999999999999996e-01
    1.8999999999999999e+00 -9.4999999999999996e-01
    1.8999999999999999e+00 -9.4999999999999996e-01
    1.8999999999999999e+00 -9.4999999999999996e-01
    1.8999999999999999e+00 -9.4999999999999996e-01
    1.8999999999999999e+00 -9.4999999999999996e-01
    1.8999999999999999e+00 -9.4999999999999996e-01
    1.8999999999999999e+00 -9.4999999999999996e-01
    1.8999999999999999e+00 -9.4999999999999996e-01
    1.8999999999999999e+00 -9.4999999999999996e-01
    1.8999999999999999e+00 -9.4999999999999996e-01
    1.8999999999999999e+00 -9.4999999999999996e-01
    1.8999999999999999e+00 -9.4999999999999996e-01
    1.8999999999999999e+00 -9.4999999999999996e-01</inv_output_scale>
  <weights>
    <_>
      -2.0797282858079011e+00 4.5273101736141386e-01
      3.7653440545561351e-01 -1.8255511149773604e-01
      -6.2494052682523069e+00 -3.1306992468310545e-03
      -2.7755778459774074e+00 -8.8707096004975949e-01
      -8.5466650843789238e-01 1.5442339711221393e+00
      -8.4996994291180139e-01 -2.3756650023197130e+00
      -9.5989805537673500e-01 3.1731897072062520e+00
      -1.2427981585329402e+00 1.3638725987863898e+00
      4.2518064747534750e+00 -4.9529774248036273e-01
      -5.4144105395801549e+00 -1.1697910169379237e-01
      -2.4312056181818834e-01 -1.2719654442735162e+00
      1.3338499995229312e+00 -3.1581343849882204e+00
      1.4267800566347169e+00 3.3673583665822909e-01
      1.2383266237114305e+00 2.2274716679216886e+00
      -2.0884683662991854e-03 -6.0412741966917693e-01
      -1.4922464672228106e+00 -1.1421684893192059e+00
      -2.9877644953477751e+00 5.1703960303291971e+00
      -2.5246609628296590e+00 1.1461988427562615e+00
      -1.4568417988904137e+00 -1.5588978754026430e+00
      -6.0509100927910531e-01 4.7478766558369628e-01
      -2.9495281817357903e+00 -3.4880312422322719e+00
      -5.5308298194238326e-01 3.0047248499957907e-02
      -6.2850337060102301e-01 5.6356698140679462e-01
      -5.2663560021386624e-01 4.0051945206787005e+00
      -1.1933267711861031e+00 -2.3517343921701701e+00
      1.3950560418582068e+00 -1.5131043682791494e+00
      -5.2053268795261509e+00 -4.5799279961507466e-01
      -5.4550067886587010e+00 -1.4191729861744278e+00
      -4.4319513706531835e+00 -5.6971017235903998e-01
      -8.5607739994726428e-01 -8.2069188092691481e-01
      -1.6500485204587725e-01 7.3695914690867026e-01
      8.3000333168743146e-01 6.5932340311754851e+00
      3.1449786447475465e+00 1.9941272495021192e+00
      5.1463372424431542e-01 -1.8268088295875597e+00
      1.3109309180632953e+00 1.0181854021999672e+00
      8.2227247346345300e-01 4.2503330731499949e+00
      1.7423592535742187e+00 1.5792685494709413e+00
      -9.6983594586050687e-02 1.0167718914605253e+00
      -1.0715668869622861e+00 -1.6642189698097059e+00
      2.6596631391432934e+00 -4.0148636429750324e+00
      5.1581384879054681e-01 -7.9586909580261567e-01
      1.6889761724465973e+00 -2.7609095942300932e-01
      3.5417182753545984e-01 9.8382784753478059e-01
      -4.5680606727577997e+00 -9.9353537235807055e-01
      3.5527817304774673e-01 1.3321248057021167e+00
      4.4511047575638036e+00 -3.6598711617855990e+00
      4.7564707813699831e+00 -4.8094211836431571e+00
      1.0007879769438373e+00 2.0199816534970854e+00
      -3.6793264615920047e+00 7.5837036367598119e+00
      1.2579055179913603e+00 5.1144961889420042e+00
      -1.4205810679022850e+00 5.5177869822514012e+00
      1.8258732966819660e+00 -7.8865791416385911e-01
      1.0025210070157708e+00 -1.3003451700266826e+00
      -3.0424881420253564e+00 -2.4675218342258853e+00
      -1.7999493149644861e+00 2.0348394383777073e+00
      -3.8757810048121861e+00 2.6348243771216922e+00
      2.2640664066408984e+00 5.6527412258593435e-01
      8.6142009464201952e-01 -1.2900306000137991e+00
      5.3654227864936699e+00 -3.6302687975203130e+00
      -2.3270436053137757e+00 2.1531037859666848e+00
      -2.2828161017351336e+00 -1.3921579557830306e+00
      -1.4249568476982435e+00 -1.4291104442474252e+00
      -2.1044786116499381e+00 -3.1209317229373856e+00
      -1.0789892865738355e+00 -2.2848452057017093e-01
      -9.1738066686385500e-01 -3.9870368255833399e-02
      -1.5586018745739731e+00 1.5592599212289708e+00
      3.5155620971844779e+00 3.1490381005810875e+00
      1.7294159010687886e+00 2.1291392647572387e+00
      2.2897171382792352e+00 5.8056682784801295e-01
      2.3312071637880383e+00 -8.6670628447971021e-01
      -2.2325625004676031e+00 1.0940401311253913e+00
      1.1379745437170554e+00 6.9062900012056012e+00
      1.1908403282829605e+00 -6.8359463908933833e+00
      -5.2948452034556415e-01 -1.6081840213569782e+00
      -1.7209832325124591e-01 1.9082775447387055e+00
      -6.9734022569011545e-01 8.7143677969247746e-01
      -2.6548407380701908e+00 2.5897559787772395e+00
      -8.6874729865850275e-01 -6.7471606869931389e+00
      7.7838675874019436e-01 -2.7384307093090037e+00
      -4.4963286523602991e-01 -2.7349502406271711e+00
      -5.4666090888815662e+00 2.4826183766140328e+00
      4.7989564792502865e-01 -2.1406285689251661e+00
      9.8200770365821599e-01 2.0614716318677573e+00
      7.2189018408512218e-01 -5.3295756479623946e-01
      2.0661713855457555e+00 4.0943605775638883e+00
      4.5163135064205182e+00 2.6836840065965881e+00
      -4.7317869001873453e-01 -1.4610432524752528e+00
      1.8452086981465027e-01 -2.7503623770061787e+00
      2.5081812214397243e+00 6.0820318739662591e+00
      -2.2249143077661088e-01 -2.2724927243258732e+00
      3.9804389096167627e+00 -3.2154707345342355e+00
      -4.8875004484148860e-01 -5.4712567015776570e-01
      4.2536869073210264e+00 3.0517401116864176e+00
      -1.9053513670815687e+00 1.5997299735895776e+00
      2.0350371680948589e+00 -4.2695432384539957e+00
      3.2228684243817409e+00 -2.7854481335363626e+00
      1.1084653465666370e+00 -3.7389582364928780e+00
      2.0563282368241902e+00 2.5824154614605410e+00
      -6.4414587888153929e-01 -2.3474302079346159e+00
      -3.9779822189614324e+00 -9.7362175753898927e-01
      -1.5103831819100342e+00 -2.8870260893397592e+00
      -3.6351912058969891e+00 -5.6100621970827653e+00
      3.9480160981768803e-01 4.8481068057933747e+00
      1.5254741284116868e+00 7.8310090946873323e-01
      -1.6688386387337057e+00 -8.2847109815540942e-01
      -4.6129171180206416e+00 2.1899066853675850e+00
      -6.2466680623464499e-02 -2.2513541939402215e-01
      -1.2712282680788085e+00 3.6207600598241010e+00
      1.7179647497367072e+00 -2.6230112618311824e-01
      3.4965795337159733e+00 4.9492093485723467e+00
      2.7779709711652698e+00 -4.5408197573331117e+00
      3.1639897957064309e+00 1.0852584524511222e+00
      -1.3785028467061380e+00 -5.3409456914800506e+00
      -2.6871509113923291e+00 3.1541077778988926e+00
      8.4445739354201999e-01 7.3541200741440371e-01
      -5.2878286569767505e+00 -3.0862021732973437e+00
      2.3866284664582218e+00 -1.0159889199086065e+00
      1.8725669877284876e+00 4.8877004256942183e+00
      -2.7660429454255415e+00 -5.8576196574209245e+00
      -1.6260339832641271e+00 -1.3898865705779104e+00
      -2.8518486794254878e+00 -2.9995996271111429e+00
      6.9601352654169868e-01 2.9169739803689123e+00
      6.0367308254404195e-01 1.8304051208074598e-01
      5.4762456987882624e+00 2.8118424301345408e+00
      -8.9359233862292686e-01 4.0537613620241544e+00
      -1.5739390334057177e+00 7.2659415312675657e-01
      -2.0019370416788194e+00 -1.0846362179262365e+00
      1.4451030598531511e+00 -7.1112835265847174e-01
      -2.2151123343979267e+00 -6.4527556283948515e+00
      1.7581717988807755e+00 -9.3664425054637246e-01
      -1.8486775609043038e+00 -4.7211798777857696e+00
      1.0495737676166617e+00 -1.6183591458178435e+00
      2.7151802634240192e+00 -1.2942428047836569e+00
      -3.2817210787121820e-01 2.9042172513364437e+00
      8.2228817691663747e-01 -2.0495492145733927e+00
      2.1032702585841702e-02 -1.2373194035545874e+00
      6.6140044642352999e-02 -9.8924664074916638e-02
      -7.5907893460801612e-01 5.6902958436906081e-01
      -1.6090884317152452e+00 1.2454567721372887e+00
      3.4363670089524395e-01 4.0415112335484169e+00
      -7.5231732908768656e-01 -8.2822233655921640e-01
      2.0978793961586741e+00 1.8992303390868954e+00
      8.1559664982227609e-01 4.7517608059865893e-02
      -9.0025926174558357e-01 -3.0980725661659902e+00
      3.9986794489957265e+00 4.7260554874119824e+00
      -3.1305095237908609e+00 1.5242069948148831e+00
      4.2963689303339087e-01 -3.0391507968613918e+00
      3.6348844665302753e+00 -8.2258111475089810e-02
      1.1856468086121079e+00 -1.3747132043080930e+00
      -6.7215511180864338e+00 -3.8460960962717503e+00
      -3.7501813517823406e+00 -4.2383769508510492e+00
      -2.9946276220621793e-01 -5.8776322568755590e-01
      -1.0577636950870961e+00 -3.3947088834523065e+00
      5.8745282813002719e-01 4.1376945521534791e+00
      -1.3929921220186301e+00 2.6754282130158522e+00
      -4.4244839510123715e+00 -3.6486201514424472e+00
      -2.8810896113111828e+00 1.3259271373411115e+00
      3.5700783923748514e+00 -7.7959222539266404e-01
      1.8847829372365386e+00 -2.9645537560106896e+00
      6.8990857288181195e-01 3.9514243555660582e+00
      -3.5521342259346578e+00 -2.4058992132267805e+00
      3.0723695016200367e+00 2.8186889385524444e-01
      1.0492807807591211e+00 -2.8063246183975643e+00
      3.1736788942860210e+00 4.4756189678623066e+00
      6.8568062980491917e-01 -1.6271334600311342e+00
      -1.5645931220846607e+00 -2.2904662759953900e+00
      -3.3624965349332383e+00 4.0749864979148720e+00
      5.9912218456314159e-01 -1.8744485262738992e+00
      -1.0294493739345723e+00 -3.7267925435127540e+00
      -1.3878268273642649e+00 -1.8876205753519251e-01
      -1.3955528883986634e+00 -2.2286474567140178e+00
      -2.0505079784390889e+00 1.5425497082852779e+00
      8.0207163726386721e-01 1.5156802079661789e+00
      2.6768678975017107e-01 -2.2729644613204889e+00
      1.8923010114562615e+00 1.2462765512493286e+00
      1.3784653424818141e+00 5.1766552416683809e-01
      -3.6085556324023127e+00 -3.3829296043648620e+00
      2.4237640098359288e+00 -1.9139999625154607e+00
      -4.3286097600099460e-01 -4.6519280194520418e-01
      -2.3590656173310007e+00 -7.6586271510315940e-01
      3.9043857697662778e+00 -5.0260622467786789e+00
      1.7199551565609310e+00 -1.5613106831012427e+00
      8.7603023943379488e-01 4.4798860246582350e+00
      1.8718085146614768e-02 2.0343807837683632e+00
      1.5616168818330536e+00 -4.7527291382206922e+00
      -1.1653256078536789e+00 -2.8403056101968107e+00
      3.9737746710977730e+00 2.6978065905122199e+00
      7.2003630509978915e+00 4.0898852704167838e+00
      1.7239632564684990e+00 2.3850899211634089e+00
      -1.1022195188892485e+00 -1.7339370643292065e+00
      -4.9877009574296522e+00 7.9057650676036695e-01
      1.1697357257120466e+00 -4.5618625325031970e-01
      -3.9869004051164936e-01 2.6133913763717573e+00
      -1.8757837995831619e+00 3.3302177946935840e+00
      -1.0941912076167033e+00 -2.8265990587350567e+00
      8.6307015379572083e-01 1.7628429562687660e+00
      -2.5463344860963621e+00 3.9636449613802562e+00
      4.7692594174014769e+00 4.8395619306742077e-02
      5.9551467937724845e-01 -2.6520203408388343e+00
      1.4288812179125268e+00 1.8985069954037554e+00
      -4.7407014968464008e-02 -2.9344592598487953e+00
      1.3995297956944522e-01 4.8599587681294096e+00
      6.1264968387067809e+00 -4.3001868101550400e-01
      -3.1097677025785240e+00 4.7945166941517039e+00
      3.4240502475858232e+00 3.2536268853665895e-02
      2.9351152739464244e+00 -2.7308284956506914e+00
      2.2678551937642530e+00 -2.0872767431829375e+00
      3.0343336512450785e+00 -2.3791660635580292e+00
      -1.7107381689594983e-01 -4.5918719666289209e-01
      1.1239382344229327e+00 -1.0466767326097306e+00
      -9.9149063623139664e-03 -1.0983410467627390e+00
      -1.9960131470210938e+00 2.2190377120379026e-01
      1.9613640035525528e+00 1.0770811656312493e+00
      3.0231969873013231e-01 -3.6457356198262278e+00
      -2.9893710464729133e+00 -4.8402448123349950e+00
      2.1158484286021464e+00 -4.9305420562891751e+00
      -1.3920174218259580e+00 -1.7446020927898781e-01
      2.9702905992723367e-02 -1.1990960940875894e+00
      3.4335637407873607e+00 -1.2595741060362515e+00
      -2.4197392767039640e+00 3.3414594937435043e+00
      -3.0750799718969084e+00 4.3484576129828555e-02
      1.4325698924060686e+00 -2.7507684680468207e+00
      3.8157105737293100e+00 4.6386803682616300e+00
      -3.2118663213945133e+00 2.2395030765339143e+00
      3.7642535930349696e+00 -4.5116363071072776e+00
      3.8454899062370784e+00 -3.1546176411055451e+00
      -2.1441047484338543e-01 1.0849124285171570e+00
      2.2239150083889285e+00 1.7598510516676809e+00
      -2.3285143814087021e+00 -1.1475739849910227e+00
      -3.8601854110124449e+00 6.9918440353404665e-01
      2.8405693386730770e+00 -2.0975411104978297e+00
      -2.3815810939563833e+00 -1.3091824679374211e+00
      1.7548029748750034e+00 1.8769559070901392e+00
      -2.9334097775897114e+00 3.1526030754372472e+00
      2.4490989344265329e-01 -2.4102691856929886e-01
      -1.5823761901524973e+00 3.5544872754303736e+00
      -9.5629432179589346e-01 -5.7163873939464214e+00
      4.0535635146979232e-01 7.0479723342108858e-01
      1.4912562038299535e+00 -2.7695973654540897e+00
      -2.5607651293922735e-02 1.9540712552305692e+00
      1.3812389124787849e-01 1.7178580217888311e+00
      6.1839496837996473e+00 -3.0366021728722661e+00
      6.5344744535015886e+00 -7.3257793604491594e-01
      -2.0522945031137022e-01 4.7259337730778501e+00
      5.4878643805703211e+00 -1.4624293957352850e+00
      -2.6081874444588982e+00 -2.0271439469099644e+00
      2.7325951261590791e+00 2.8133423539884199e+00
      -5.0691483655974694e-02 9.8042615211691453e-01
      1.2752347188097453e+00 1.5101917486297995e+00
      -1.3535585268309358e+00 -3.8350555339184007e+00
      6.5432305614680730e-01 7.4233028209558760e-01
      3.2309494944551798e+00 -2.0384176424989473e+00
      -4.8675678712623078e+00 5.8155147681684727e-01
      -6.6086459485614824e-01 -1.9862998841764785e+00
      -4.1726898652750579e+00 -9.6552456531351993e-01
      -7.3289299180673090e-02 -5.2329102975698101e+00
      1.1231929500927196e+00 -3.8602716340518972e-01
      3.9796404697711938e+00 3.5297870979979691e+00
      -3.2303689596961500e+00 1.7174267844533548e+00
      5.1413525850845394e+00 1.6801754208305548e+00
      -6.6189702131705230e-01 -1.0165011671314419e+00
      4.2006303368751752e+00 5.7392819738947738e+00
      1.3844195155365693e+00 -1.4111026935511224e+00
      1.5543873910747932e+00 4.4932111753612185e+00
      -1.3518318282261301e+00 2.3631271650373584e+00
      1.4245510063916931e+00 -5.5379968475971584e+00
      -4.6699312796301475e+00 1.4666459776060810e+00
      -7.1440593659673794e+00 -4.1815350832185558e+00
      -2.6867083872108251e+00 -2.9849877280704376e+00
      5.1152046238395499e-01 3.8894937723860070e+00</_>
    <_>
      -1.3062928425699383e-01 1.4802409489879145e-02
      -2.4954667055558333e-01 -2.7257292961771651e-01
      -9.1249207652706288e-01 -1.0815225934329473e+00
      -2.5962400227950289e-01 1.0564701814204027e+00
      -2.3032471318361054e+00 -9.7455696408622594e-01
      1.0007662034928757e+00 3.6100220660639093e-01
      4.0964009875935264e-01 -6.9961549333275697e-01
      -7.2750513373652936e-01 -3.4611356305431196e-01
      -6.8837230169175112e-01 -1.5624391182064207e-01
      -1.8060294852125933e+00 6.6981177907753386e-01
      -2.1174477948056700e-02 -1.6579484763041625e+00
      1.1222460040396727e-01 5.5233925402488748e-01
      2.9852735958387364e-02 6.2909483881706307e-01
      -5.2683889067676813e-02 -1.0279371267235413e+00
      -5.7348261394258038e-01 -3.4836934977069234e-01
      -6.1654668054122543e-02 6.8420554180077753e-01
      5.5374520593630205e-01 -5.1148144941708207e-01
      1.6752590450501526e-01 -1.5044014862481203e+00
      -5.3112235963425758e-01 1.4525344725101474e+00
      -8.9802792902006046e-01 -1.5592663250276484e+00
      1.4701449652051746e+00 -1.2946429775125305e-02
      -4.6813575639290317e-01 -3.0025868848226450e-01
      -9.1091547882996160e-01 -3.6186548142127989e-01
      9.6829987166134723e-01 -5.0561971757694824e-01
      -1.8470043189115088e+00 -9.5166669741725951e-01
      1.1339086400029685e+00 3.3473992984084788e-01
      2.1110188360623242e-01 -5.2313148908497953e-01
      -5.7231256464028679e-01 1.3112017001755984e-02
      -5.8003206840798482e-01 -2.5099426630544974e-01
      2.2052961833792828e-01 -2.3082002413566003e+00
      -2.2410128855769296e-01 -4.8012012982260471e-01
      8.6597097398676914e-01 -1.1128406420981265e+00
      -1.2375634153227570e+00 4.0506771046246048e-01
      1.6540632465647562e+00 -3.5504428421209311e-01
      -1.1764068853431431e+00 -3.3499980330910928e-01
      1.0759787074402818e-01 6.5727498381826166e-01
      -1.6875581600936711e+00 -5.2977184714295367e-01
      4.0346913531105849e-01 -6.6405626267363416e-01
      2.7091809336880612e-01 2.1039741770883302e+00
      1.3716935166399775e+00 -1.4914268365481012e+00
      -5.9990925637881942e-01 -2.7348448193050218e-01
      7.6684395760622515e-01 -1.3361363303903712e-01
      6.6297722355243516e-01 -3.8946090795648686e-01
      -3.1523010488036413e-01 -4.3043812935032844e-01
      1.6270475818689263e+00 -4.5830602316757602e-01
      4.1609689054027836e-02 7.2790797683621411e-01
      1.1714038916690108e+00 -6.2279176193451080e-01
      4.9310725871858224e-01 -9.1101455028930278e-01
      1.7637462195529388e+00 -4.9706138528750499e-02
      -1.8049787210429485e-01 2.3516412248059548e-01
      1.3324077366665570e+00 1.1294201784292640e-01
      8.1288770006279099e-01 -7.3331374839230867e-01
      -8.2080677914651203e-03 -1.4368472193764841e+00
      1.3968460337990065e+00 2.0111472534073767e+00
      3.3304707890407964e-01 -9.0130170088318484e-01
      -1.0371693572407538e-01 -3.3222494543762665e-02
      5.6867022094266761e-01 1.3137675441945187e+00
      -1.1177825413270379e+00 7.9219781288948563e-02
      9.3708001838029187e-01 3.6257620515937011e-01
      -1.0442620870810777e+00 1.0739713161005132e-01
      -1.5630329467620712e+00 1.7583810069230428e+00
      -6.8401867351650936e-01 8.1681540384206708e-01
      -2.0117820731740323e+00 1.4992999858426828e-01
      6.1108775652130638e-02 -3.1488118622236577e-01
      9.7800274077019897e-02 9.2146128108605355e-02
      2.3230752447944053e-01 -9.8843408781314557e-01
      1.5197501679365588e-01 4.0389692779706154e-01
      -4.9855114034264963e-01 -6.7409263998331448e-01
      3.2338005890861993e-01 -1.2764106178813270e-01
      2.4557922528032755e-01 6.6170127144629221e-01
      1.0040442158139504e+00 -2.2896708403074978e-01
      -1.3197852723352441e-01 1.1474402944138344e-01
      4.4795176764330930e-01 3.9917360003450125e-01
      -2.5061930907449553e-01 -2.1442965765172772e+00
      -6.9162421136416652e-01 1.2581189941056024e+00
      6.8542855984286566e-01 -1.4970829323527071e+00
      -7.6994460460501890e-01 7.3355675023451680e-02
      -1.2604787560215625e+00 2.4771153741920959e-01
      -1.0810185459722548e-02 -2.6749022615249285e-01
      -8.8065949158225409e-01 -1.0961803925176820e-02
      3.3201897383001405e-01 -3.5556144616886753e-01
      -3.4670144679095983e-03 7.4964822833929579e-01
      -4.1826504112202961e-01 -3.2350714759547750e-01
      9.8702199280906189e-01 5.7058025413010094e-01
      5.2014626250120977e-01 -7.8079646517555501e-01
      1.9186064705802056e-01 -4.4573884293866900e-01
      5.5470686438868066e-01 -1.3179408427107049e+00
      -5.0597891229521430e-01 5.6914118241414013e-01
      8.4871006284474304e-01 -6.4008452145205696e-01
      -4.4290897841111349e-01 -2.4435602261160544e-01
      1.1112920290106039e+00 -1.3609283528226677e+00
      -5.1717001330045453e-01 3.7207123895626065e-01
      -6.9320417827357428e-01 -4.4821636747844440e-01
      4.7733181640283789e-01 1.3108684909966184e-01
      5.4665856003936186e-01 -5.0672871032580213e-01
      1.4573267874863545e+00 -4.1534865811088317e-01
      -1.1844262065782876e-01 1.5768397559978695e+00
      -2.0581346998074741e+00 1.3818203801482263e+00
      7.6262760201808399e-01 9.5444950847640830e-01
      -9.9136145867557410e-02 -2.6598918841657210e-01
      -7.7172738443297112e-02 -6.6288570728919888e-02
      3.8447781550511662e-01 2.0007672827736949e+00
      -8.1741344712700381e-01 9.6236666381378644e-01
      4.1742351267958483e-01 7.0571950801515826e-01
      -2.3281802096647258e-01 -4.1877145380100533e-01
      1.1260636156191046e-01 -5.8969796030329824e-01
      -4.0815503206092180e-01 -1.8875931559386621e+00
      1.7280519561787295e-02 3.2964936961521801e-01
      7.9616263632422704e-02 7.6239219058994923e-01
      -8.5418744527291712e-01 -4.6858389452856919e-01
      -3.4927152211647605e-01 -9.9965825133643760e-01
      -2.3578934794715125e+00 1.8705475689525937e+00
      8.3525186589962186e-01 6.1732848351880232e-01
      -1.0075361644124500e-01 5.9107706751889544e-01
      1.2422076024337028e+00 2.1301379040422028e-01
      -8.0926711728205725e-01 -1.3049181956351137e+00
      -6.1377533136833562e-01 -1.1013940386528193e-01
      6.6373137272007637e-02 1.3364851171115371e+00
      1.2264511110568561e+00 1.1964082219821994e+00
      -9.8941961660639632e-01 7.4370687671069879e-01
      -1.7103478098473219e+00 1.5492420728482890e+00
      -6.7995963149458571e-01 8.7758249294940416e-01
      -3.0933004323224753e+00 -1.9138247254156753e+00
      2.0170421609505529e-01 1.7493612045521374e+00
      -5.8893336399299967e-01 4.9838380716020431e-01
      1.0930861596597046e+00 -1.1740372918080115e+00
      9.3368634486786395e-02 5.7640771747331776e-01
      -1.2431727809201827e+00 -9.8860728873029757e-01
      9.9684196514113810e-01 4.8934180575523706e-01
      -1.4501121205144479e-01 -1.9479825851659187e-02
      -2.1652322743551189e-01 -7.1439815714037583e-02
      -3.2761422856468131e-01 -2.9988050459817889e-01
      -1.4979624163461582e+00 -5.5532775411054065e-02
      4.9176708119697460e-01 -8.0552946166605965e-01
      -1.7245062427353861e-01 1.4757219324131485e-01
      1.0991037735055018e+00 -2.4234018394181800e-01
      -2.0103377989716559e-01 -2.1417305670679881e-01
      -6.5602304521129062e-01 -3.6707016091638295e-01
      3.4109328381063703e-01 -4.5167161399082882e-02
      -3.2143493372388496e+00 -1.3373536313819263e+00
      -6.9038914325464606e-02 -3.3518022301045042e-01
      -1.2883245850411074e+00 5.9185905992676002e-01
      4.2178084078067563e-01 4.8078958774863872e-02
      7.4312352024103057e-01 6.2973932527284004e-01
      -1.6902712541422565e-01 -4.2243383903286114e-01
      2.7572948125917235e-01 -3.3644171312110605e-01
      -2.1486112167492140e-02 -3.2570970173705166e-01
      -3.0231397334210475e-01 4.0892933413889276e-01
      1.4405926734366679e+00 -8.8461931049584830e-01
      -5.9000204716191718e-01 -1.1796680667207973e+00
      -1.9442898178968049e-01 2.2002689867087208e-01
      -9.0895347176346641e-01 -1.2304094910490335e-01
      -1.3605472953222661e-01 -1.1153856215124600e+00
      -5.8289370087135850e-01 1.4306819486947333e+00
      -2.0900435501183616e+00 -3.8369498524999196e-01
      1.8489969227915981e+00 -1.7399856458904173e-01
      7.3683135656004084e-01 -1.1245822007500397e+00
      -9.5757968938500404e-01 -5.4320799047478885e-01
      -5.7441172159291864e-01 -3.7375803450692691e-01
      -1.7127579545903016e+00 6.8943139832876510e-01
      2.6997528299046508e-01 -1.0813606799487825e+00
      -7.8177469565592062e-01 5.1351371977958438e-01
      -5.7266161205707455e-01 2.6232136099184217e-01
      -8.2353173802509172e-02 -1.3764832216453682e+00
      -1.0130020496482646e+00 1.1131733570882224e-01
      -2.2123091139302026e-01 1.0415741519751400e+00
      4.9510040247880177e-01 -3.7003411241343287e-01
      7.0765903018553533e-01 -7.9343718569527477e-01
      -5.4327777685059753e-01 1.5913177208401870e+00
      -5.4467886329070148e-01 -1.8522361463642016e+00
      7.3949541718242318e-01 1.7363850313148019e-01
      -6.6790828806568481e-01 -2.6855823584332772e-01
      -3.3418565088426966e-01 5.1475026583839421e-02
      6.8877095630715501e-01 -1.1786973194328187e+00
      -1.8588368519959999e+00 -3.6839586546542158e-01
      8.0589057510404982e-01 5.0675540406109632e-01
      -5.6927966697610771e-02 -4.7022312973931157e-01
      -2.1944246434212510e-02 2.5807413328213280e-01
      -1.7415020480461874e-01 -6.2644566618824959e-01
      6.3942726276729134e-01 -1.8594216506694528e+00
      7.9130050512953964e-01 3.6086605510812830e-01
      -3.1956956589301022e-01 6.5874915072987494e-01
      5.4624790489011255e-01 1.0660700014242724e-01
      -1.3508516055676587e+00 -4.8001715665947770e-01
      1.3147425142740521e+00 -3.7441738069213393e-01
      2.9919896053233219e-01 -7.4520517968252842e-01
      1.1900640416968029e+00 1.5177283084724742e+00
      -1.6083770154878740e-01 1.3512061691519989e-01
      -6.8806926706250299e-02 -1.0645432995933810e+00
      2.2465409650918805e-01 1.3273911550715998e+00
      1.1221093507642472e+00 -2.3223759104231534e-01
      3.8763984667022372e-01 1.2137044873623668e+00
      -7.4627514303303610e-02 1.2195297425204450e+00
      1.2467269284248119e+00 -3.1656472024185013e-02
      -5.1992842925535754e-01 1.8254466760966367e-01
      -1.3124006285147087e+00 -4.3675816733912087e-01
      -7.1816382470292928e-01 2.7367593221061143e-01
      -1.0093959684083682e+00 7.1948491209755616e-01
      -1.0234937723585211e+00 3.3060422330340572e-01
      1.7842387074220101e-01 6.2183067949409998e-01
      -3.4508859657090213e-01 -3.3302164749756558e-01
      -7.6432887338471450e-02 1.1124202910781000e+00
      1.0355885330975927e+00 4.7326119535046235e-01
      -2.7974862200110651e+00 -1.3990160660969367e-01
      6.8521357031181251e-01 2.7857698802535618e+00
      -1.4985554738012163e-01 -1.8278790019122573e-01
      -1.3119565034948630e+00 1.5205785390877355e-01
      6.0970367091821021e-01 -1.8573899558817697e-01
      -5.5857306745965551e-01 2.6081444872786180e-01
      2.9610633753091709e-01 6.0914639476002541e-01
      -2.3854797817330935e+00 1.2296482157426534e+00
      2.1532770525306746e-02 1.0657006874907085e+00
      2.1284779454582711e-01 5.0098774074766483e-01
      -5.9148090081812943e-01 -5.4750239895651664e-01
      5.7106302619801863e-01 8.8546846388292511e-01
      -7.5779554091352286e-01 -7.4889936385247532e-03
      4.2864005980161801e-01 9.6444869551580006e-02
      -3.7265954207311036e-01 -2.3168579552061258e-01
      4.7841556352375170e-01 -7.3179895199329748e-01
      1.2832619887801991e-01 1.7150151003470011e+00
      1.0099271774742951e+00 -4.6185587915441723e-01
      2.7212604163551545e-02 -1.2798608075592366e-01
      1.6620640451870812e+00 -3.4525421293642727e-01
      -5.2594533249067577e-01 -2.4626998309788122e+00
      6.5718302345253099e-01 1.6997924645986742e+00
      -8.6856911683525162e-02 -5.7700436294931468e-01
      -2.6900273062965918e+00 -1.0406146097181281e+00
      -3.3292567737923950e+00 3.1840314999931846e-01
      -1.1335110667353230e+00 -2.3981995175261145e-01
      4.5329061636913437e-01 8.5474908504288716e-01
      3.1574137371718930e-01 -1.7578355897835973e-01
      -5.3825815891209017e-01 4.8854803142477365e-01
      -1.4644481446829085e+00 4.6301789371542765e-02
      1.3982736558934870e-02 3.4264386013699777e-01
      8.0073357015858548e-01 7.8443320106555026e-02
      -5.4212255204300064e-01 -2.1789130493928807e-01
      5.4610974216570740e-01 -3.1673816667205821e+00
      -3.3707136634373053e-01 1.0313166470818091e+00
      4.6166287050131272e-01 -6.7607928508699144e-01
      -1.5867299476854035e-01 2.1972224215103239e-01
      -1.9234171452185642e+00 1.7525915819683180e+00
      -5.5234998685960890e-01 5.4749163960467806e-01
      -6.1428310260187202e-01 4.3896990935054747e-01
      -1.0374572339215855e-01 -1.4987667794475332e-01
      -5.3964957748327991e-01 8.5135576424646875e-01
      1.1222473282115307e-01 -9.0683006363934548e-01
      2.6544893171103284e-01 1.5053079852142709e-01
      -3.8936934614500474e-01 -3.1770497466693032e-01
      3.3844849227082907e-01 -1.7021167004735607e-01
      3.8781894488620028e-01 8.5820590364314209e-01
      4.6180824139179749e-01 -6.5882211011691519e-02
      1.0110406239149711e-01 -3.6924080477286958e-01
      -1.3221500944324679e-01 -1.3241915865311871e-01
      -5.3420071344037601e-01 -2.1654927470183702e+00
      2.2172912249095630e-01 3.5780831052522305e-01
      9.5129911523205346e-01 -1.2401227167618289e+00
      -6.0869803440372205e-01 -1.9428310769437909e-01
      -5.4377362453715616e-01 -6.3285598093579934e-02
      -4.1526457424903233e-02 -1.1321413559366564e-01
      -5.1196964526312794e-01 -8.3268721876506108e-02
      4.1612457603490294e-01 -3.2609164895884740e-01
      -5.9012545794321011e-02 6.7277667193508262e-01
      -2.9147605980529656e-01 -4.2647738937634255e-01
      9.1052056256743075e-01 3.9522756915053231e-01
      5.3813216311419743e-01 -1.0028325425271969e+00
      2.0852610468976820e-01 -4.4221131931971414e-01
      6.9190691276364502e-01 -9.0850138041757633e-01
      -4.0520115195439704e-01 7.5996989166699069e-01
      1.0338206622578969e+00 -1.1745112793168950e+00
      -7.8876165537896725e-01 -4.5574275065474518e-01
      1.6279271686806072e+00 -2.3913629378144390e+00
      -7.1198361762868395e-02 -8.3346887369458700e-01
      2.8806579500933798e+00 1.8484324716017819e+00
      -1.5974030122388333e-01 -2.0481898149077042e+00
      1.9750281548683601e+00 -9.7679322009727942e-01
      -4.2280429427548694e-01 -7.6620740363939399e-02
      -1.3895810797754056e+00 2.6478280734522569e-01
      -1.6749558079956750e-01 2.7022636035496896e+00
      4.5447253573663732e-01 -3.0557833049338268e-01
      7.2472688472772751e-01 -1.0102922798680145e+00
      -9.0312886197948661e-01 3.6520314896369654e-01
      1.1832937521182270e+00 7.4035664403455814e-01
      -1.2332852797064504e-01 -4.8333369664559828e-01
      4.8345468832767519e-01 1.8937186932382613e+00
      1.2972143419163764e+00 -8.4533467596848999e-01
      -6.9681576018955260e-01 -3.8452901501156161e-01
      -3.4133771991642325e-01 -1.0142025372038526e+00
      9.2598356966314932e-01 9.3566354188622358e-01
      9.0014824331163257e-01 -2.8948408055174957e-01
      2.8693211765903417e+00 1.5900117453603466e+00
      -5.5139799755232299e-01 -5.2028228665321685e-01
      -6.2745983171543485e-01 -5.4902150966191388e-01
      -1.9086962590189948e-02 -1.1214060532729023e-01
      -6.4460812301989923e-01 1.3653034475184043e+00
      8.9805117177040883e-01 1.0125645292393064e+00
      -9.6298831392844697e-01 -3.6210092083444395e-01
      -7.3071296258753504e-01 4.2930748631798482e-01
      -2.2451103463691863e-02 2.7009400691981289e-01
      -1.0610638132808192e-01 1.6064704996486638e+00
      -6.2329679040938397e-02 2.0554568449919564e+00
      7.1911260470434801e-01 -4.1830900725651754e-01
      1.1476850395934182e-02 -1.0576749497105749e+00
      1.2671332165295690e+00 -4.4529051272303605e-01
      7.8915028960161415e-01 6.2780614118441269e-01
      -1.0032355363710119e+00 -1.4789850303542340e+00
      7.7283864112791645e-01 7.7454322407621590e-01
      2.9953491217252916e-02 -8.1083619053954681e-01
      3.5500366539656755e-02 2.2268077299329583e-01
      -6.4405921032960722e-01 5.8501180252275597e-01
      -1.1682488623711577e-01 -8.4471890814371409e-01
      -6.3271662939441231e-01 -8.6220134414904370e-01
      4.7901731291818306e-01 1.2596631836680514e+00
      7.3408142579504221e-01 1.8369985616857873e+00
      3.7735963828137442e-01 -4.7116351018680741e-01
      -2.2877390456534952e-01 -1.8349291242157961e+00
      -9.2308290577937446e-01 9.6010685443945121e-01
      9.9346452931901941e-01 -9.8924910375942554e-01
      1.0855739143730629e+00 -1.4449588483685163e+00
      3.3074981408470699e-01 1.0664061418864710e+00
      5.0562708007158297e-01 -7.9330165081905457e-01
      9.2138712281722424e-01 1.1645080023398706e+00
      2.3680734097163364e-01 -2.6902029041103614e-01
      -5.3827737109261709e-01 -1.1302101173708474e+00
      1.7404493596757484e-01 1.1783558935984480e-02
      1.6234503693105218e-01 -1.6087711518485263e-03
      1.7190375628684960e+00 9.3228911868071129e-01
      -5.1814398845848975e-01 1.2452489216567357e+00
      1.2039553808682009e+00 -2.2602714724629541e-01
      -7.2426307303126258e-01 7.1565809031731853e-01
      -6.6106091788153465e-02 -1.5187367193212857e+00
      -4.2116972888786264e-01 6.3267058615966998e-01
      -1.7609286821622581e-02 -8.6302266440003950e-01
      -8.2855151288223017e-01 1.0425514257977626e+00
      1.2380566895193015e+00 -1.4786188240146843e+00
      2.6388211279582535e-01 -1.2881750761026418e+00
      1.0231631482943864e+00 -2.7574675618988911e+00
      2.6032708375743790e-01 3.1434018050292795e-01
      -5.0040699766251995e-01 -7.2507528944964109e-02
      -2.0779878651157171e-01 1.3092457888200424e+00
      1.3980403484075785e+00 -2.3554509314363944e-01
      -6.2237550967841071e-01 -1.9669831830456258e-01
      1.2438792150738025e+00 9.7549628410417655e-01
      -1.2534889405438507e+00 3.4647239657620921e-01
      2.9581315184583784e-01 -8.8658787411140760e-01
      3.9381266466620601e-01 -9.2356355284250347e-01
      2.3558348195993779e+00 -1.4287520341793654e+00
      -4.6012759211958118e-02 -2.4214570934331690e+00
      1.2653607886306979e+00 -7.0636498026402234e-02
      3.8870458681684011e-01 1.4782144497141507e+00
      -1.4700335930034791e+00 5.3864583181208703e-01
      1.0296268408644125e+00 1.3985324140870878e+00
      -1.9817998839998824e-01 1.0902074290100716e+00
      -4.5199539834231245e-01 -1.7343617394674617e+00
      1.8628801495148368e+00 3.6519344997295405e-01
      1.5417642404379170e+00 -1.3589622687986527e+00
      1.2524865738580937e+00 1.2458903275401310e+00
      6.6038042595832047e-01 7.6599524185261725e-01
      -1.4478121774591593e-01 -1.2113063001430622e+00
      2.4983671649628980e+00 7.2623444174927410e-01
      -1.2205021884364100e+00 -1.2208077205035966e-01
      -3.9652496855565611e-01 1.6839598015710870e+00
      1.4242774056493218e-01 -8.8232947967186309e-02
      -6.4412451341513854e-01 6.3070653367935858e-01
      -1.5761150774192309e-01 -3.4822301406422912e-01
      1.5500229567891818e-01 -4.3817799592496287e-01
      1.4627908826708802e-01 -1.6566335668507268e+00
      7.7389577174719837e-01 6.2317314213251285e-01
      -5.2250318622345659e-01 -9.4967446288141510e-01
      -6.2059205483054747e-01 -6.0921350234197513e-01
      6.1643531607661028e-01 1.2072875817513442e+00
      6.7159248531794724e-01 -4.2405373214475919e-02
      6.8128630570436688e-01 -7.1143001356770111e-02
      -1.1850797972366995e+00 9.5279031633556266e-01
      2.7925702675671260e-01 -2.1185450321362365e+00
      -1.0459312548563964e+00 -7.2441230789515076e-01
      5.4316869193508999e-01 -1.1156261404187793e+00
      -2.8911649922638432e-02 1.9890970545882852e-01
      -2.6308993635933225e-01 -2.7245397639070229e-01
      -5.7702521767095161e-01 8.4212871198399775e-01
      -6.2071181134995512e-01 4.5956580467137564e-01
      8.5031961180092652e-01 4.0289985189235450e-01
      3.4410898633085291e-01 6.8067663081639385e-01
      3.6313761494737506e-01 6.3856140170562137e-01
      4.8806259868242288e-02 -9.9831545436879154e-01
      2.5656081265240510e-01 6.5030953631397825e-01
      4.2587671683715350e-01 3.6948232485385746e-01
      4.9716426899384145e-02 -5.0149413945089139e-01
      1.6255094961082989e-01 -2.6806366398660997e-01
      1.2804755650700304e+00 -9.6890746506420899e-01
      -2.4371451293670954e-01 -1.1627937775711110e+00
      -1.5143779672066021e-01 -1.6224645689445863e-01
      1.1331424156857284e-01 -3.8198966746952701e-01
      4.2349290384182547e-01 1.3572867567889619e+00
      -1.2218646099805412e+00 -6.8547518951646602e-01
      1.0063599658563902e+00 -2.8459027616845576e-02
      -1.0451913782763032e+00 -1.2051229832592142e-01
      5.5935070991483482e-01 -8.1454343879519761e-02
      1.4742870883875359e+00 -8.3398272588300737e-01
      1.0741006349398516e+00 -1.4643225825330315e+00
      9.5475419373747561e-01 1.6222450749774244e+00
      1.2631617945406759e+00 1.0250567214672088e+00
      -1.8738252757492524e-02 -9.0266971795138951e-01
      -1.0277454708931244e+00 -5.8258878801894809e-01
      3.0492342292462460e-01 -7.5898516691613871e-01
      -5.7787318014043654e-01 1.6496369464704559e+00
      -1.1950676369208062e+00 -1.0877522368486794e+00
      -7.2102256120894592e-01 1.1886926466455532e+00
      -5.1165207242588318e-01 4.9690647167939195e-01
      -9.8957034757984419e-01 -1.1398253938762080e+00
      5.3033654704490540e-01 8.8206125567984212e-02
      -6.2638018486713687e-01 -6.9155095305710368e-01
      1.8050889814747071e+00 -2.1380754574352293e-01
      2.6150529265555061e-01 3.2430623443667089e-01
      6.8378948887372271e-01 -9.7441845536527594e-01
      -1.6004973831719607e-01 -5.8018485560104827e-01
      -1.0487048265336034e+00 -7.7482403917478315e-01
      7.7033650916123853e-01 -1.7659696218308263e+00
      -9.8481435901070369e-01 9.1166501903291441e-01
      -1.6953242974636236e+00 -6.8207946910906936e-01
      1.7987627830263446e+00 1.8816981017526388e-01
      -1.6380937251439903e-01 5.8994671716875480e-01
      -7.3739785529533663e-01 8.7320461504901570e-01
      1.1987030470362716e+00 -4.3514146216217187e-01
      -1.2220567913925842e+00 1.2384898055429733e-01
      5.0296978483038701e-01 -5.5716870416639933e-02
      7.9636122964209688e-02 -1.1549014726033753e+00
      2.3442857101342280e+00 -1.5371545211546939e-01
      -2.2570532518670144e-01 -1.7515023908448876e-01
      1.9474236458291336e-01 -1.7953070689996189e+00
      -4.1171097408985824e-01 2.3736396993372804e+00
      1.3335202891625770e+00 1.5355008551979074e-01
      -1.0806270872746586e-01 4.3288435766440581e-01
      -8.9892857927595782e-01 6.1819557837832984e-01
      1.6348454704546164e-01 2.6920741573991930e-01
      -2.2890162215994092e+00 4.2707420903078541e-01
      9.8531271391162953e-02 -1.0681951922389419e+00
      -1.0324505068951726e+00 2.8558110384829727e-01
      -1.7522947191036316e-02 8.1435404886280849e-01
      -2.3533278248374705e+00 -3.4798119638581992e-01
      -2.4934516259263427e-03 -7.0714802516882941e-03
      -9.7901142352610182e-01 -4.6454325805054481e-01
      -7.8879371039230650e-01 3.3552743253678363e-01
      6.5199565458560660e-01 1.2797377148718607e+00
      -7.0273232977048600e-02 -2.4218046070519210e+00
      1.1427159544267251e-01 2.8958816842168023e-01
      -3.6561726836241526e-01 -7.4733956397855805e-01
      2.6595044810748825e-01 -8.3885565127376094e-01
      1.3175775549383717e-01 8.8395034526933547e-01
      -1.5495301496247624e-01 -1.1035680133239447e+00
      1.0164200287046288e+00 -2.7868422537982818e-01
      -5.9736217964416938e-01 1.1331524372179895e+00
      -1.1223171656530810e-01 -4.1697597509882384e-01
      7.7142417955703823e-03 6.9213224867602130e-01
      -6.6438641048370894e-01 -5.9051921022717213e-01
      -8.5039757046999592e-02 -2.5726677179056295e-01
      4.0898072446761879e-01 -1.0721434728698931e+00
      6.1791428951585448e-01 1.1074285101015165e-01
      -4.2254878442938548e-01 -7.2225331629677303e-01
      -8.3896041365034191e-01 -1.0437112229295533e+00
      2.6326488070472120e-01 1.4609503782064606e+00
      5.7357958965783196e-01 -5.5573541789383063e-01
      6.1458794803487551e-02 -5.4365997818814826e-01
      -1.3571949526954433e-01 3.4703997190935296e-02
      1.6458867079158815e-01 -1.6275291382532588e+00
      -8.9801111811195633e-01 2.4652674642387506e-01
      7.3660638658872657e-01 -2.2435920890419378e-01
      1.5790404466337936e-03 3.7737178910084218e-01
      3.2164758228705137e-01 -2.2902893465646432e-02
      -1.0748710360851399e+00 8.9303974219443061e-01
      2.1388656963441940e-02 3.8985325439506374e-01
      8.0829594646439029e-01 7.1462226513983795e-01
      -2.5294702808845798e-01 1.7832748092453521e-01
      -2.7944480742616579e-01 3.5724052331136524e-01
      3.4532032616526487e-01 -1.4862984829913197e+00
      -3.1825465226898325e-03 4.2909513475992093e-03
      5.4494065987819140e-01 5.0105330851462448e-01
      2.1561841518918076e-01 -1.3805122574609505e-01
      -3.1418092936902292e-01 -2.6819109503247962e-01
      1.1205555608067581e+00 -7.7930789709581072e-01
      1.1410913382203954e-01 -1.3468486017947663e+00
      9.6048222453031251e-01 -5.2315478152334971e-01
      -4.0776147499213339e-01 7.7040696085738491e-01
      -5.3206029989862236e-01 -3.8791531095544077e-02
      6.5030242109277103e-02 -3.7054743071586876e-02
      -5.1053278456691178e-03 5.4213559857478255e-01
      -6.3944634966082645e-02 9.9262411353662439e-01
      -5.5361236448289297e-01 3.2507394387251887e-01
      5.8259491663983975e-01 -6.4705828150053590e-01
      1.0661721143359462e+00 -5.7560547375162285e-01
      -3.3476990191692063e-01 -1.2575192846670338e-01
      4.6532728258084372e-01 1.2938863709395385e+00
      -9.6521625701835123e-01 -8.3818188660485493e-01
      -6.4552150228197547e-01 5.8177367183387445e-02
      -1.0569803939577143e+00 1.2807939355453404e+00
      -3.3682652587713713e-01 9.9802422859647666e-01
      -9.2636084660973916e-01 -5.9103923326040142e-01
      1.7289633275234920e-01 1.9527047317646304e+00
      -7.3108482368223526e-01 1.4111946842577369e-01
      5.0852653467153275e-01 -2.2315446377648946e+00
      2.2528598660496829e-01 -5.9983781260486658e-03
      -9.7597754088191413e-01 -1.8712722671690334e+00
      9.9281264534815350e-01 -9.1290190483931388e-02
      1.0156782230466195e+00 9.3549635142018450e-01
      -2.3523644200478883e-02 -7.4545470105757558e-02
      -7.6519083464907023e-01 -4.1997301494547480e-02
      -1.2698094179173709e+00 -1.8036354344798142e+00
      6.1926589042772806e-01 -5.2774641148223078e-01
      -2.7816040670756653e-01 1.8596654214870314e+00
      -8.9622838532678306e-01 -3.1490246112559621e-02
      7.3896078147700006e-01 1.1522936097508392e+00
      -1.4873557626617724e+00 1.7614671118470950e-03
      1.6210857635958040e+00 -1.0190648730019003e+00
      -1.2921181583756527e+00 6.6117549058472536e-01
      9.2469844433603543e-01 -7.2449455147410580e-01
      -9.4873022641213178e-01 1.3277086636219407e-01
      -1.3172710420374825e+00 -7.9548853672076425e-01
      -3.9561546314057906e-05 -9.0244348541702346e-01
      1.1109738594145742e+00 -1.8005141561990166e+00
      -1.3772271693650190e-01 7.3049612754300375e-01
      9.1697797502844236e-01 -1.9182943891149473e-01
      -1.7510029001057903e-01 -1.6690842580546268e-02
      4.8958443875077529e-01 -7.6065310117207474e-01
      -7.9192536206236630e-01 -9.5313368678339491e-02
      -1.4725145010955831e+00 -1.7613589129060514e-01
      3.3100249637659679e-01 -2.4486125893042340e-01
      1.4110761369253295e+00 -1.8211227446219519e-01
      4.3538859255539664e-01 2.9958082442451806e-01
      -2.2461404140663982e-01 -7.7233415374104530e-01
      8.6193543443631851e-02 7.0922726305348871e-01
      -6.8389303796545520e-01 1.3433096738226777e-01
      1.0646818766721542e+00 -7.4850498843808488e-01
      1.6670282531321077e+00 -6.6593760325513418e-01
      -8.7482549958734379e-01 -3.8319648824183877e-01
      2.4334393376790620e+00 -8.3258971956482727e-02
      1.9043623944343741e-01 -2.1746961428770937e+00
      5.0754857832676503e-01 -8.9297856639990014e-01
      2.7596093161340214e+00 -5.0247675200551636e-02
      -1.3301868956552603e+00 8.2753079895344039e-01
      9.4943197623141684e-02 -8.7696156627000799e-01
      -4.8916953879094655e-01 -1.7207517864306185e+00
      3.2554862391642841e-01 -1.8224569404254645e-01
      8.7351357705866839e-01 2.2223029296563129e-01
      -1.1082242596914595e+00 5.2837360065654349e-01
      7.3390807698376948e-01 -1.1693216184313140e+00
      1.0409447123881623e+00 -1.7895048088131349e+00
      -3.5279273422085955e-01 -1.1709042841107753e+00
      1.0182648734404620e+00 1.6643319544316724e+00
      -6.5768458865257895e-01 8.9679654941818487e-01
      2.4750744629121904e-01 4.5702409548198547e-01
      1.9168237095633793e+00 4.6707666119347779e-01
      6.0930355191286334e-01 -1.9751607043255673e-01
      1.7122816256953086e+00 2.1361373087273590e+00
      -5.3598954239725938e-01 2.4503417231207929e+00
      1.5151550000058565e+00 7.2687936420526378e-01
      -1.5690633401717269e-01 -3.6689848113553702e-01
      -1.7927506150889042e-01 -9.4139512601533049e-01
      -3.9656803982145417e-01 -1.0968638349377476e-01
      -2.7336813368335761e-01 9.9624169447784039e-01
      -9.6934572538224817e-01 5.8207779063261977e-01
      -1.0471205983412717e+00 1.2933584644410094e+00
      -1.2019946311298575e-01 1.1590970957407536e-01
      -9.5376073015983220e-01 1.4445126205384846e+00
      8.0356878121554298e-01 -6.0543245211240493e-01
      -5.2670686446404669e-01 6.0409485540485940e-02
      2.2650571328621654e+00 2.2583923477661202e-01
      2.5279195392663784e-01 3.9660110614938543e-02
      -4.3531306759836408e-01 -1.4133791558119957e-01
      1.0571071980075568e+00 -6.7994014959020810e-01
      -2.8078808518607012e-01 7.1928791444981788e-01
      -1.3073857504399888e+00 -2.6513588844208996e-01
      1.3610408738230018e+00 -1.6028103907741602e+00
      4.1408393380586905e-01 3.6597926239200196e-01
      2.4669698486860209e-02 -1.6432285495222425e+00
      4.8585540063139462e-02 1.3536261539957739e+00
      2.0261485610173777e-01 8.4559131319299463e-01
      -2.6450592533560124e-01 1.8854660021156286e+00
      -8.2006499773712338e-01 -8.4771841195411868e-01
      1.2614292561865157e+00 6.6901809270955481e-01
      -2.9187910916557502e-01 7.6326732196814748e-03
      -5.7736830752914992e-01 -7.7881008082553271e-01
      -2.5023043784317545e-01 -4.8746400105623353e-02
      -2.2613971462803562e-01 -8.9635703658976207e-01
      1.5919698742315427e+00 -4.1468893270212209e-01
      -8.1882685865592775e-02 2.0920444501311395e+00
      4.3175780411967324e-01 3.1341620272631165e-01
      -1.2241499522736363e+00 1.1577815900879924e+00
      4.4203731982419103e-01 1.0273288462443484e+00
      2.8350954660667776e-01 -1.7616378825988815e-01
      2.4512411554479532e-01 -1.5946860531398810e+00
      1.4304845871270461e-01 -1.9791144914952319e-01
      -8.6884442292506514e-01 6.5589310909867221e-02
      1.3515099735564035e-01 -1.1554675364252966e+00
      8.9832721650552838e-01 -1.5550586623645199e-01
      -4.2112342155679811e-01 5.2569586599008855e-01
      4.3735599043462875e-01 1.3561571106407522e-01
      -1.9329780673144098e-01 -9.7740035122942229e-02
      -2.9215140381835786e-01 7.1029316431030876e-01
      1.8095042734691712e-02 1.8598482739911401e-01
      -2.0388675674323391e+00 5.0329631211242198e-01
      2.1589487991638676e-01 9.6921914300440615e-01
      -6.6986067023721496e-01 1.3289344059087255e-01
      1.1411665644379327e+00 -5.1799209480748654e-01
      -7.1079661629558277e-01 3.5808395334533866e-01
      1.6426806010192547e+00 1.0102569887770406e-01
      -5.3488519987001582e-01 3.7779705906509815e-02
      -3.6743727394736808e-01 9.4881054214081473e-01
      -1.3581214954361183e+00 -1.3632707989820095e-01
      -5.6290772949286805e-01 -8.3542418508576854e-02
      2.3890389210026122e-01 2.2640292032011851e+00
      1.1463202349025150e+00 -1.4889918265629289e+00
      -1.0786201363784247e+00 2.4324585625346264e-02
      5.0080756407959948e-01 -3.3555449287546424e-01
      9.2822778493770630e-01 -6.8095294687908459e-01
      -7.8257347175688197e-01 -4.5563070451636473e-01
      2.1434220528954517e+00 -8.9439524097156786e-01
      -5.5752083020429846e-02 4.5139815219506624e-01
      6.6720465248776195e-01 -3.7859100344580687e-01
      6.3562275004052438e-01 -9.3547182280232744e-01
      1.4132179855361553e+00 -5.0656333277091314e-01
      2.5591939952262638e-01 -8.7525914053565440e-03
      5.8551387029547941e-01 1.9952950095850488e-02
      -3.0399910594924817e-01 -8.1007414163182045e-01
      -1.9876103540718718e-01 -1.3497105520717003e+00
      7.3113356955768438e-01 1.5361204705571652e+00
      3.6529655214750162e-01 -7.8425297399769800e-01
      4.7966846899983130e-02 1.4063712153962984e-01
      -1.4931049759188098e-01 6.0705985144072361e-01
      -1.7810102552271108e+00 2.6988645439957493e-01
      8.9594574196692134e-01 9.9823458747830096e-01
      -1.5887936810688610e+00 4.8039432897305567e-01
      -1.5520032764019844e+00 1.4858366064846915e-01
      1.6855047001786749e+00 -9.4245901912928498e-01
      -8.7307586042893670e-01 7.9761445174179346e-01
      5.2415317492794800e-01 -8.6719703747125310e-01
      -3.6872430824189745e-01 -3.7537309767169863e-01
      -1.5229066970514082e+00 -1.0849211278263624e+00
      2.6097818269038519e-02 -2.4433912734560337e-01
      1.4891270175102109e+00 -1.1246610324357231e+00
      -4.9425879435403282e-02 3.2831054941943855e-01
      1.4234361023998523e+00 4.1265231641210938e-02
      -1.6862350875212065e-01 2.8000390571225381e-01
      9.9308960666089818e-01 -1.5708751474959368e-01
      -1.1535299581868861e+00 2.8431791824303793e-01
      -8.8705818303563833e-01 1.3094205160606329e-01
      2.3769954515755085e-01 -2.7541684836179681e-01
      3.9081848184811763e-01 -7.4918392885152119e-01
      3.6326972723423290e-01 1.5695054168525771e-01
      -1.4280430926643686e-01 -2.4421859291190004e-01
      -6.6287984820261516e-03 -7.5749492706421631e-02
      -4.5425388738940342e-01 5.7841778014944034e-01
      4.0401441336778943e-01 -2.4657808584472599e-01
      2.3591000842905943e+00 8.2234007867037537e-02
      -1.1404510391706771e-01 -5.8977265442990583e-02
      1.6119355708159384e+00 4.2062214718306068e-02
      6.8383513568093779e-01 -1.6542799293711012e+00
      3.2938138343800377e-01 -5.7883021947742719e-01
      2.0372038951165430e+00 2.0756858642468484e-01
      -1.2582202787898524e+00 5.1934117003673830e-01
      -5.6682581578827806e-01 -2.0413570441610512e-01
      -3.3124444435143618e-02 -9.8959646851661887e-01
      3.6790573036567159e-01 9.8164831871457947e-01
      -6.9179518139862672e-02 1.2504213702123930e+00
      -2.6927010609572705e-01 4.7740211972619789e-01
      -4.5122041089121490e-01 -9.8089563790614331e-01
      9.1717048180889216e-01 7.7558348036618774e-01
      -3.3320843804498884e-01 -1.1697835304229021e+00
      -8.1877736502824039e-01 1.0843518142722115e+00
      5.4909555989599668e-01 -3.1428517272689566e-01
      1.0625285419818269e+00 -2.9674794432993273e-01
      3.1644786327160840e-01 -1.6189719995909743e-01
      5.2585814547965071e-01 1.2793553350613305e+00
      -3.0314229009345045e-01 -3.3203911682351056e-01
      -1.4574379958877535e+00 -1.0860087171093538e-01
      -4.8159632164222371e-01 6.2284986385903940e-01
      2.3328246269850469e-01 1.1914704428817229e+00
      6.2465365107939752e-01 -1.3319433852125879e+00
      -6.5885864801635641e-01 1.2220585903764392e+00
      -5.7107403720404259e-01 6.7162319534230519e-01
      5.5687863635359014e-01 -1.1159611852161111e+00
      -6.1933688297809104e-02 8.7589127518406273e-01
      -8.0235294186069006e-01 -1.2527858869772301e+00
      2.9648836386450367e-01 3.8692944272462559e-01
      7.7688196918184005e-01 1.4085499843319089e+00
      -6.6963928204512135e-02 9.9003407370888197e-01
      -9.9273816800258263e-02 -5.9463361248588933e-02
      -1.7315135325597597e+00 -1.5817141412804543e+00
      4.1395530639666195e-01 -4.4155819492301746e-01
      -2.3298462103700612e-01 1.1075510319982920e+00
      7.9358762270377492e-01 -6.4296474626041566e-01
      -6.5089491939737987e-01 1.0847396643608964e+00
      -5.7233909750354750e-01 -3.7399652428605538e-02
      1.6308770034757767e+00 -5.6462679097121637e-01
      1.0552339678778730e+00 1.4391709671753534e+00
      3.9678663011335624e-01 -1.9446488902817833e+00
      1.9955484307860254e+00 -1.1952630162578581e+00
      -1.4140177951017308e+00 -8.8833466228646976e-02
      2.4108994542245529e-01 4.2270370495312032e-01
      1.3909981984858688e+00 5.8128832971047628e-01
      -1.1907645718498630e-01 5.4761990828786911e-02
      2.1067513415651211e+00 2.5883578727946827e-01
      -3.5858746967358957e-01 1.0413704027757757e+00
      3.1372317053121104e+00 1.3302431140169895e+00
      -8.4461234564510979e-01 1.8668090787441696e+00
      -8.6667960832646340e-03 3.1801408170264389e-01
      1.0712440150185626e-01 -9.8365385575770692e-01
      -1.5358217391926896e+00 -7.8999946824631884e-01
      -5.5681875069591033e-02 -3.0759803613976400e-02
      4.1871250326875824e-02 6.5756465482639326e-01
      2.1849359255547793e-02 -7.2225751869389510e-01
      7.9371239196379562e-01 2.2556888846532956e+00
      -5.7847348649204688e-01 2.0637873713244134e-01
      1.0916163462093531e+00 5.5709156542790583e-01
      6.4329002798909207e-01 2.1490400812908342e-01
      -1.7388205879452595e-01 -1.6578403683833401e-01
      1.5858105135083784e+00 -1.4232404373627600e-01
      -2.6627074477471480e-01 6.6501781491724032e-02
      7.3819284150266551e-01 3.1948844696637074e-01
      -7.0042766175680427e-01 -1.1165156373286547e-01
      -3.0371176684336088e+00 6.1814217851922215e-01
      4.1849980295807498e-02 8.2142249558871860e-01
      1.9799743611877343e+00 -1.6825205219717565e+00
      -6.3589869704719304e-02 3.7346827574460166e-02
      1.1268417189779374e+00 -3.5612545936748324e-01
      -1.7406456772189979e-01 7.3906248707543520e-01
      7.3794097998882313e-01 -8.7566436558241167e-01
      6.2100445927612724e-01 1.5546873087291515e+00
      -3.6205385523933509e-01 9.6171846162563732e-02
      2.7241284047321380e-02 1.0386672369987118e+00
      5.3308082623434110e-02 -1.3834144363484174e-01
      -5.8872780792521773e-01 -5.1535588760156370e-01
      -4.5979825917763484e-01 1.0877571278355693e+00
      -5.9596484332371957e-01 3.5720597897793271e-01
      -6.8986630512065061e-01 4.2619697148733211e-02
      6.4133542165370072e-01 1.4592367705891738e+00
      -5.0346522708516106e-01 -5.7706217188099285e-01
      -8.2610379858256577e-01 1.1059435344486725e+00
      4.8192071557612026e-01 8.1642114336106830e-01
      1.0738880516771594e+00 5.3138336598045699e-01
      3.0167895430289388e-01 -8.4649398379992724e-01
      3.8369222096093852e-01 -4.6323111697329264e-02
      -8.0296438112215707e-01 1.2127457287244647e-01
      -1.9077111713172032e-01 -5.7414754471390783e-01
      1.4428924418084041e+00 7.5145244744008810e-01
      -1.5642279367270768e+00 -7.2717586456393357e-01
      -1.1405098079567138e+00 1.2987796150645394e+00
      -4.0793788367053974e-01 6.2677029984753801e-02
      -1.5647516305891271e+00 1.0183709184154939e+00
      2.6398045689328503e-01 -3.7003392520627781e-01
      -7.8875183803577653e-01 1.1666815175183900e+00
      8.9908530305093393e-01 7.3389774256892326e-01
      6.0800105194591925e-01 -9.8868254009371465e-02
      -8.2425257417218889e-01 2.8983357210282668e-01
      -6.4377845612682838e-01 -2.2184795713878853e+00
      -2.6389078000799587e-01 2.5128473976715822e+00
      -2.9484430161790751e+00 4.1273562938849329e-01
      1.7116164452319771e+00 6.1044321640565813e-01
      1.4760010168328591e-01 -9.8005338382698648e-01
      -1.4742765116953815e+00 8.6377323157378033e-02
      -6.7851461712630723e-01 1.8903666830327689e-01
      -2.4909396740970644e+00 -1.8412775651483720e-01
      1.0842013496398480e-01 -7.9596200612703993e-01
      -2.5634865943926046e+00 -3.5821494057779152e-01
      7.9085874248291677e-01 -5.9134676448221835e-01
      4.3858926474505018e-02 -7.0649833918057500e-02
      -2.1007557436427315e-01 4.1248722125044235e-01
      1.3931289482674682e+00 1.2495755240856219e+00
      2.3924895254757664e-01 -2.5286534889916878e-01
      1.6510002821388892e-01 -1.2692242006836154e+00
      -7.5417962548360404e-02 1.8990762190843655e+00
      -1.0057449698440688e+00 -2.6712898912684162e+00
      1.0756294539826019e+00 -1.4301934582889891e-01
      -8.5870027506545255e-01 -1.7200420427813698e-01
      -9.1631912669091731e-01 3.7511366394559126e-02
      8.5386027623684191e-01 1.5614124484961253e-01
      -2.2125181440860757e+00 -6.2617852426824472e-01
      5.9076434946733580e-01 -3.1332389041347192e-01
      -4.0176992272148099e-01 1.7566503880586094e-02
      7.1189336573037287e-01 4.2205441347386374e-01
      1.4363523948853090e+00 1.8118685414427116e-01
      5.2090854218239180e-01 -1.5289771394719263e+00
      -8.3893768154629067e-01 2.5343012133766174e-01
      -2.1817526667323450e-01 -3.6500480412937214e-01
      1.7491160918132160e+00 7.2744486261468244e-01
      1.1682639574454888e-01 -6.3004789837631137e-01
      4.2416127767593764e-01 1.0595770433419336e+00
      -1.2216025705812505e+00 7.8654650036107276e-01
      -3.8076805432855236e-02 -5.8532866346580303e-01
      1.1181665622067753e+00 2.0236890761443516e-01
      -8.7999445113898650e-02 -5.3222835832128779e-01
      -4.3425229162761772e-02 2.9693079749827439e-01
      -3.1690688719978655e-01 -7.8701062730653082e-02
      -1.0161583774084371e+00 -2.1390456722471649e+00
      2.4756574516486678e+00 -2.0301501419642909e+00
      -7.2931004542658318e-01 -9.0312422113692570e-01
      1.0262025608314891e+00 7.5973233604529666e-01
      1.5388834087791572e-01 8.2349908482890088e-01
      -6.5313105282750261e-01 3.5285962563867801e-01
      -1.1815091183493764e-01 2.0140512855480414e-01
      -2.0317924416654795e-01 -9.5929101072434142e-01
      1.8149977414887584e+00 4.6506586238767683e-01
      6.8242274553338741e-02 7.2908197022456256e-01
      -1.9539471211775628e-02 -1.5378234180881447e+00
      -1.1137628392723387e+00 -5.8307506076363946e-01
      -6.5797171634772500e-02 -4.9236894015369254e-01
      -8.6556582541775867e-02 -5.2084063664821012e-01
      4.0963100743502140e-01 6.6728954752672898e-01
      5.4332806104406262e-01 -4.0877809791929770e-01
      -2.1698892836521375e-01 -4.7189612978069673e-01
      1.5915632301506211e-01 -1.0142705017680540e+00
      -3.5208478427724038e-01 3.0705800795961435e-01
      1.1980058419356363e-01 1.2879581145654417e-01
      -9.6024267296678356e-01 6.4334389743548859e-01
      1.2536528087602030e+00 -1.0054996453819409e+00
      -1.8100942025541671e+00 3.6351989594939665e-01
      1.3222173767251839e+00 7.1964714024894061e-01
      1.7484209132927242e-01 5.0165797899824793e-01
      1.1609527525269854e+00 5.8179311077378948e-01
      2.4029707635826411e-01 -2.2180449534125524e-01
      -2.0729226887978078e-01 -1.5226412727203020e+00
      -1.2120135313679468e+00 9.7750788871634930e-01
      7.7624052407131627e-01 6.0341005762301758e-01
      -7.3017503090465674e-01 -4.5322986260971349e-01
      -1.2225039405585869e+00 -1.6129077479534457e-01
      1.7532864944002283e-01 5.4069951624755597e-01
      -1.2922002397187438e+00 9.7037918686230851e-01
      -7.2289920122355955e-01 2.8274165985331268e-01
      -7.3947253768656884e-01 1.3181256624408020e+00
      -9.9280837857686000e-01 9.6938048989536518e-01
      -1.6557599747149365e+00 -4.2488507859556585e-01
      6.6901925569765519e-01 -5.3270941056448451e-01
      -1.4734938306607153e+00 -2.8140993245653978e-01
      -8.7443935246480156e-02 -1.6964546480992465e-02
      7.9200533848561749e-01 1.6392941204966969e+00
      -2.5416356295146727e+00 -1.3892805650962621e+00
      -8.4500702931200022e-01 2.5041489624046815e+00
      -9.0626311083054389e-01 -1.7676909678054487e-01
      -9.6602363058515162e-01 -9.3053724361669776e-01
      7.7352604239712797e-01 7.6680489798509971e-02
      -1.8022315728888376e+00 -6.4619811037382990e-01
      1.3295116268853766e+00 3.9508722669643798e-01
      2.2190679109713405e+00 -1.3029296730211648e+00
      1.8170923650936338e-01 -5.1245471591908132e-01
      1.5940510182657780e-01 -4.0003402679027023e-01
      5.1258795977458282e-01 3.7657799725380858e-01
      2.2235911160523228e-01 -6.7765590674618892e-01
      4.0906662030422369e-01 3.1810732017347837e-01
      -4.5390262057966091e-01 1.7341882570918213e-01
      1.5413749520835565e-01 6.1205567389678284e-01
      -1.0617350254666577e-01 7.4487500975497922e-01
      1.9511350785397112e-02 -1.4705256728703795e+00
      -8.0524246697797164e-01 7.1336397190333733e-01
      -8.3787308420351550e-02 3.9999216019309852e-01
      -2.7875860117462981e-01 1.2452093607432002e-01
      4.5629329594055740e-01 2.1476814566348681e+00
      -3.6476806303527065e-01 -6.8554114583114456e-01
      -4.0106868155946185e-01 1.0884424734561287e+00
      1.1865775338852345e+00 7.0407744926791183e-01
      1.3754340919980150e+00 -2.8037247272053828e-01
      7.5224818499419066e-01 -8.2520875517219632e-03
      -1.4485614176920292e-01 -1.8746001346816774e-01
      -4.4696173381535076e-01 8.0478959165193265e-02
      -3.7759647793472401e-01 -2.9653178578898937e-01
      7.5657925297938378e-01 3.0590076504624231e-01
      -8.6080471917921120e-01 -3.8098894146102980e-01
      -4.8961109873423220e-01 4.9340833653623040e-01
      5.7486259910306474e-02 1.8627318477843802e-01
      -8.6767212382455361e-01 1.8318781321442621e+00
      4.8319849668145337e-01 -3.5945851294806042e-01
      -8.4211772677826946e-01 1.2359516484567283e+00
      3.0067254983731534e-01 4.9780971434118026e-01
      -1.2582217842260517e+00 -6.8738208823176283e-01
      1.0880349534483786e+00 -1.3451871333056058e+00
      1.1687578861313463e-01 1.2485711692319759e+00
      1.5609291050131957e+00 -3.6596308537791411e-01
      -3.9253002955256944e-01 1.8923341093878242e-02
      -9.1064948140801327e-01 4.4079639999695613e-01
      -1.3650581792891152e+00 -2.6177999990282408e-01
      5.0214991556775512e-01 -2.1711022137427560e-01
      -4.1651270491732138e-02 8.8104369309481312e-01
      8.4164600660200206e-01 -9.9575674181213847e-01
      -1.1926493856856804e+00 -1.0228931534845944e+00
      8.2733765376759738e-01 -4.9373962229092094e-01
      6.4407361625833059e-01 -9.2834305185704036e-01
      -9.2530008509549611e-01 -1.8802895675494685e-02
      1.3579314725754019e+00 2.6327270939838918e-02
      2.7063061682793305e-01 2.6748306750852868e-01
      2.9827439773995512e-01 -1.5942565754007914e+00
      1.6506372004357459e-01 -1.3401947977620268e-01
      8.7759913157236902e-01 5.6750028329892732e-01
      1.7182024733143736e-01 5.9589171923216921e-01
      9.9837763454284945e-01 4.6393824220471891e-02
      7.5506461158392024e-01 -2.2884749020416068e-01
      -7.3511144826869879e-01 -1.2339974820601307e+00
      2.2651292177410687e+00 5.3068911986914025e-01
      2.2620777131123207e-01 -2.5386761631599892e+00
      1.6898971252337031e-01 -9.1444741631903512e-02
      1.4359169293706020e+00 -3.1822082215714209e-01
      -7.5955803473319472e-01 9.6544514396942671e-02
      8.4941855428521973e-01 -3.0489529250073439e-02
      -1.0245300213372046e+00 -1.0639875093773152e+00
      6.3822722136061227e-01 6.6136098069324656e-01
      1.0636469290053197e+00 -4.7674022639642705e-01
      -1.8439059258317561e+00 -6.1644274634503382e-01
      1.3108521192351348e+00 5.1760293617876074e-01
      -1.0207129550269767e+00 -8.2741708564653249e-01
      -2.2857726271127615e-01 -8.7533996245017276e-01
      -2.7347339501892909e-01 8.2541849609293039e-01
      -7.8023158896420919e-01 -3.8591011489835947e-01
      7.5703906655764686e-01 1.9756614865453692e+00
      -1.9839085589661601e-01 -1.2452091304248116e+00
      -3.2848658782554868e-01 1.9745439610776108e-01
      1.0524899937594836e+00 2.2262685953848433e+00
      -2.3960781160397242e+00 1.6047814335279893e+00
      3.7035271873621523e-01 2.7265048177883360e+00
      -1.1136417182961608e-01 -1.0684954543539515e+00
      7.4583429815297542e-01 -1.1123101153475403e+00
      1.3073778741121997e+00 -5.2166749868985285e-01
      8.9449690680802152e-01 -8.1548788863843491e-01
      6.5336821802333223e-01 -1.0475044566561859e-01
      -1.8075782308236841e+00 -1.0940456896886199e+00
      2.4685105951743352e-01 -1.2464214831896223e+00
      -1.4982859916500110e-01 1.2442295076399825e+00
      9.9231896611522175e-01 7.8019440710316668e-01
      1.2736563514461352e-01 5.3209313880242981e-01
      8.1424454428047688e-02 7.2305312291976065e-01
      -3.6116324883148360e-01 -1.2644615803547257e+00
      -9.9960370637379475e-02 1.0617245755216342e+00
      -2.7302216592454187e-01 1.4458645440352742e+00
      9.3335861148780208e-01 1.7006860689337062e+00
      -1.0858502805570005e+00 8.9539182614551252e-02
      -4.9953656833235882e-01 -7.8894822282608568e-01
      1.0271727388341685e+00 -1.0125207038764183e+00
      6.5506835999598167e-01 -7.7876772540607292e-02
      4.9734136638050924e-01 1.3960887757540950e-02
      -1.5044585047018988e-01 -5.9313405305465028e-01
      -2.3351624654156244e-01 6.7573574900293987e-01
      7.2756816667171154e-01 -6.2803555594191418e-01
      -2.2613929486654769e-01 -4.1367089637634974e-01
      -1.6677607896953472e+00 6.3263244967759036e-02
      7.6881548320983384e-01 6.5867070020667454e-02
      -2.4802043901431323e-01 -9.8073990296571933e-01
      8.7829504089913202e-01 -6.5161358094642541e-01
      1.6077199837995115e+00 -2.6393948658031302e-01
      4.1790413486984118e-01 -2.7237053967131136e-01
      -1.7782616499351112e-01 -5.0393959764694074e-01
      -5.1937615532650827e-01 1.4079908847615934e+00
      3.7176493081129830e-01 -6.2080896505154382e-01
      6.2077975618814119e-01 -1.0393621416878375e-01
      -3.5091890076895821e-01 1.5905792922849125e+00
      2.9668325794490913e-01 2.2306517140362539e-01
      4.7955865340528703e-02 1.8896376103146750e+00
      6.1221264224502449e-02 -7.4451314460350249e-01
      -1.2162949902468738e+00 -1.1518110335044240e+00
      4.3869929121803369e-01 -8.6879996401024062e-01
      3.5829921049920049e-01 -9.0898693998989288e-01
      1.2705099305442715e+00 2.0692702123569973e+00
      -1.9985155403825788e-01 4.7342513188375357e-01
      7.1679733947697244e-01 -2.4723721891709562e+00
      -1.5571951740848948e+00 -1.7918693503649011e-01
      6.9840432988502099e-01 -9.3618731108502795e-01
      -2.2607381406194413e-01 4.6151073671084947e-01
      -2.7369275129333198e-01 -4.0404238287085709e-01
      -7.9430661322244644e-01 5.2302368316704345e-02
      6.8638651764217695e-01 1.0443137213303963e-01
      -2.0546817747508034e-01 -5.9644853705677355e-02
      7.8191350281587479e-01 -1.1550953283685867e+00
      -8.7825880864527106e-01 -2.4119798897870476e-01
      -8.5550281203745693e-01 -4.9012387242267683e-02
      1.6655623314340542e-01 1.1891571752982957e+00
      5.4759573957777186e-01 -9.6909366931646179e-01
      -2.9673784109973894e-01 -4.4809671857312550e-01
      -1.0691379732321554e-01 3.9790671740742778e-01
      -4.2165469791419696e-01 -4.6896952276547976e-01
      -5.0506712607748394e-01 5.3181572039714825e-03
      -3.5801234147268574e-02 -6.7916784712551437e-01
      1.7698451945207476e+00 4.4327724196070994e-01
      4.7972474278487443e-01 -1.6057194198231115e+00
      5.3838166267676446e-01 -5.2338253192365758e-01
      1.0116848514456149e+00 1.4438690219434265e+00
      -1.2289836814748227e+00 -4.6979410203546351e-01
      7.4692673616484395e-01 1.4173788004432149e-02
      -5.3201075554091037e-01 2.8398488311657122e-01
      2.8024883982539583e-01 -1.1016593841184177e-01
      9.4019986551916723e-01 9.0289024306073040e-01
      7.6293435849678670e-01 -6.2840116469708851e-01
      3.8492857586511187e-01 -5.9121459612594351e-02
      5.1190807865438226e-01 9.7673811175727177e-01
      -7.2764944315744329e-01 -7.0227729035188785e-02
      2.2136205745346631e+00 4.4088626054126023e-01
      -8.9312916924890096e-01 -4.5464541501358402e-01
      2.8983118914790595e-01 -5.3900418202204307e-02
      -7.7927023814087948e-02 3.5339403868861702e-01
      1.7177168546854364e+00 -1.5273223986939785e-01
      -9.5480590874116456e-01 1.3643405646942630e-01
      1.6692117431732717e-01 5.6064590012290350e-01
      -8.9753720709266738e-01 1.8111334365729277e+00
      5.9868577178610660e-01 -8.9890487958412868e-02
      1.0229817428687957e+00 -2.4559440193704432e-01
      -3.7181377938868648e-01 -9.2204492671399507e-01
      -1.4648443329904262e+00 6.8198275233076844e-01
      1.0510549094641659e+00 4.4142218534093419e-01
      -6.9621978003855245e-01 -1.3127403596496072e+00
      -1.9421265712209523e-01 -1.4567076202050219e-01
      -9.1244907835867945e-05 4.8357128028156710e-01
      -6.6199401594753648e-01 9.6193571430710700e-01
      -1.8367646622104503e+00 3.3778858228362740e-01
      -5.8689507095544061e-02 1.7585551003873356e+00
      -9.3166941644288936e-01 5.1400829672913217e-01
      -1.1066651579644660e+00 -1.5272932028854429e+00
      1.7481061959523916e+00 -2.8488627569526390e-02
      -1.0016650674870673e+00 -3.1098291168000419e-01
      8.3697471366563470e-01 -6.8498593724091472e-01
      1.6833842618723720e-02 2.4305658681335440e-01
      -1.3468182499620105e+00 -1.1233104402804792e+00
      -1.6132237679827444e+00 9.9636525708408319e-01
      -5.0750298351674672e-01 -3.3076872411789297e-02
      -5.4479533072314812e-01 -1.3009379147592881e+00
      5.7505880093205797e-01 4.0396574339823005e-01
      -2.5356012318319432e+00 -4.9963201990760803e-01
      1.6528033893227323e+00 5.4665196626976509e-01
      5.9234646841868033e-01 8.5882754745409162e-01
      -7.6934651037062962e-01 1.4528538150081556e+00
      -1.8906914009321705e+00 -8.2295501601474708e-01
      -9.5385766491516122e-01 4.2438928035714241e-01
      2.1429617577238455e-01 -8.0112245652167380e-01
      1.0802603649873108e+00 -1.3475357755851562e+00
      5.0581242760644385e-01 8.7716311501091149e-01
      -8.3856004076132917e-01 -5.2765542822504585e-01
      2.6270929307970048e-01 -5.0297866721159457e-01
      -9.0079367363645968e-02 1.3380733490232932e+00
      1.5938922215054094e+00 9.2813638539000221e-01
      1.5553096797014654e-01 9.7694651770463714e-01
      -1.6095199203563439e+00 1.7748956383065360e+00
      3.9747506296766294e-01 -5.2061952319547349e-02
      -1.1474572849798135e+00 7.7444968991614882e-01
      9.1821341529871026e-01 -1.3652080727145441e+00
      -2.4040214917809200e-01 9.7345686178907920e-01
      -7.4753622494206218e-01 4.2939025434260869e-01
      -1.0215859483154301e+00 -7.9440454970023378e-01
      -1.6077458008113277e+00 -4.4995529050332644e-01
      -8.2212217210421090e-01 -8.0271086072212960e-01
      -5.2058824191711150e-01 1.4972105604506774e+00
      4.5606682432487466e-01 5.3772813770479411e-01
      -4.0833985430991532e-01 3.2145180709164994e-01
      7.2135643139736708e-02 7.5339289775191143e-01
      -2.7377064647436528e-01 -9.0870873982188816e-01
      -5.9503859836639372e-01 -5.2848619128182783e-01
      -1.5171612555698055e-01 7.2933907654164976e-01
      8.6813605861963808e-02 -3.9517841034118623e-01
      9.5689350248631011e-01 -1.1865337035128580e-01
      2.1889053511320958e-01 4.8508658614092781e-01
      -1.7352961646788407e+00 3.3289057275936296e-01
      -1.4704169329774488e+00 -1.0117566890269971e+00
      3.3208544322882831e-02 1.9621773201481427e+00
      -1.5765507953272664e+00 8.4344157384828489e-01
      1.6277290238123883e+00 2.3660161268229116e-01
      1.7851690971439269e-02 -3.8271907159751767e-01
      -1.1523997906942602e+00 -7.3929845157617469e-01
      1.9934503106949530e-01 3.3158388983223375e-01
      -1.3014820750775546e+00 -1.2224810557905905e-01
      4.2243897639878586e-01 -1.0896095553517169e+00
      -2.6701322220238648e+00 -9.2662115911841081e-01
      -4.3159252918263047e-01 -1.8018810643896577e+00
      -2.0842415258046781e-01 -2.7280730375723292e-02
      -3.2656589976746542e-01 4.5862453258441832e-01
      1.2967141395206792e+00 4.3742757301290552e-01
      3.2503956597493677e-01 -4.2548799621383926e-01
      -3.8037822429172219e-01 -5.8845741136286311e-01
      1.3055834757392101e-01 3.8963844715578638e-01
      -1.3491447430103811e+00 -1.7912059091068475e+00
      4.6215038813117537e-01 -6.1604677489484405e-01
      -6.8534507244531473e-01 1.1393746265087733e-01
      -4.4871667644579805e-01 -3.8285539305820226e-01
      4.3877510431480077e-01 4.2449570298723210e-01
      -1.4689348362672321e+00 -1.3260827058220024e-02
      1.4757116510692314e-01 -3.5878230034010089e-01
      -5.4272658467604429e-01 1.6376162027647051e-01
      7.7879181781702167e-02 9.9500912208103898e-01
      2.5730820116269588e+00 -4.1955370133213732e-01
      4.5715056480022831e-02 -1.1229131965723822e+00
      -9.0315064242183685e-01 4.1024674408462761e-02
      8.3842741832808898e-01 -3.1731051310261993e-01
      -3.7337133691844798e-01 -4.6898712113291824e-01
      -1.2017957149225403e-01 5.0195517901162268e-01
      -8.2505545978733150e-02 -3.9279180190712770e-01
      -3.2219006372396963e-01 8.6047110729973397e-01
      8.2434886816313235e-01 -2.9039087866656049e-01
      -2.1237087837033752e-01 -6.3907729356001708e-01
      -1.4129947254935655e+00 -4.5854553057490555e-01
      3.9855253023793741e-01 1.6811955687784841e-01
      -8.9024425949194061e-02 -7.8434117708498041e-01
      6.4801451488715889e-01 -1.0149179929614840e+00
      1.5394614131897513e+00 -1.2668325737081901e-01
      2.3469124055980636e-01 -9.2461958419792600e-01
      -4.2269962496417596e-01 -4.0174922665622126e-01
      -5.3859387384809576e-01 1.2109660681964252e+00
      -1.9859666313001970e-01 -1.2480351466195441e-01
      5.0716347127809175e-02 -4.3925350203012792e-01
      -4.2265322024132179e-01 1.1607800990417030e+00
      -3.8430123266705268e-01 2.6768940076948172e-01
      -1.8990253931594142e-01 1.6809773054781063e+00
      -2.2187435722480081e-02 -1.0137882766972456e-01
      -1.1712753564597453e+00 -7.1548659799663694e-01
      9.9862659814813036e-03 -7.7468523972256931e-01
      4.3108610908281114e-01 -5.8287861195474056e-01
      7.5883139777466457e-01 1.6320801522276263e+00
      -1.3377354183212506e-01 4.8185065062834951e-04
      3.8654342200215891e-01 -1.7627618723713454e+00
      -1.3734546461066202e+00 -4.3086031262659086e-01
      5.8423742076855756e-01 -4.0602224905085399e-01
      -4.2153756208812299e-01 4.9509836576439975e-01
      -1.1740098164435842e+00 -3.1342622928315672e-01
      -7.3498035555043884e-01 4.5750967338905663e-01
      6.0980296915854248e-01 -4.5832062259730649e-01
      3.4135991225803786e-01 -3.8487198080887791e-01
      1.4307803397356575e+00 -1.9311300485964811e+00
      -4.7332483734991782e-01 2.5920160571753531e-01
      -2.3990579187125198e+00 2.4067540345070634e-01
      4.1573918299150053e-01 1.0933923130141383e+00
      1.7912139640823843e+00 -5.7773491175520708e-01
      -2.5526246834345828e-01 -3.9320677637575030e-01
      2.4327763415454631e-01 4.6560427585205905e-01
      -6.7669986500357204e-01 -5.8818786135641221e-01
      -2.0740062217484775e-01 1.7772096454031233e-01
      -4.7996447705754297e-01 -4.3673766919885015e-01
      1.6662873544057828e+00 -3.9667489927627292e-01
      1.8890011125256730e-02 -2.2160934928696165e+00
      2.4715338857918698e-01 -3.4719182325158876e-01
      8.1562805220837065e-01 1.1872415094335715e+00
      -1.2803009640566259e+00 -5.4504797140396566e-01
      7.2279457052409402e-01 2.3063628229731170e-01
      -2.0275967825098209e+00 5.7767212531116363e-01
      7.0550209045863133e-01 -1.9472233229887598e-01
      9.3791175249178083e-01 7.0016827288494476e-01
      1.4942401421964571e+00 -4.9081353633923974e-01
      3.7317989210750901e-01 6.9174930789400013e-02
      3.4307720500120609e-01 4.6516792331398615e-01
      -5.5588115869754262e-01 1.6692335505056496e-02
      2.8426250673331861e+00 7.1470719645072567e-01
      -8.5016114347831773e-01 -7.5129046248713083e-01
      -1.7835084118626892e+00 2.0640633134662023e+00
      -6.7541869639056895e-01 5.6727272203938783e-01
      -6.0679594162565471e-02 6.1998969535488946e-01
      -4.2179715081063612e-01 -4.6222836647482363e-01
      -3.3808141928650703e-01 9.0025173381206569e-01
      -1.3480868956817771e-01 -1.0870554489811799e+00
      7.7104536427354708e-01 -6.8113948308574229e-03
      -3.1599102555819852e-01 -2.2264273967624226e-01
      9.5502936495780871e-03 -6.2660619158296305e-01
      3.8732259110406447e-01 1.2303417719420955e+00
      7.6908225076426207e-01 -7.8014086607395694e-01
      3.5228570534492892e-01 -4.6331630688120362e-01
      -8.9921084557881212e-02 -1.3413352928435679e-01
      1.4058178300295071e-01 -2.9758781268838019e+00
      3.3583677232612887e-03 5.3158120400577480e-01
      6.2982857080833632e-01 -1.3112182235780896e+00
      -9.7926608162892481e-01 -6.0201493769958625e-01
      -9.6815476511813359e-01 1.8574892352542342e-02
      -6.2597149533968854e-01 2.6140799452781077e-01
      7.3219458263669948e-02 5.1795546047960821e-02
      8.0684094809459528e-01 -8.2169065093049595e-02
      4.2415054700739929e-01 3.5999069528766214e-01
      -3.1271215211313391e-01 -6.3360482706445698e-01
      8.8878094001811325e-01 -3.9457356092375225e-02
      7.4129764153880595e-01 -4.9276007424397500e-01
      3.8042411847973717e-01 -1.0833922305781249e-01
      5.9295139028388044e-01 -1.3669681231749864e+00
      6.4772002117983339e-03 3.1771055699821371e-01
      9.8056445442966289e-01 -1.4686427545349838e+00
      -6.1121777074379413e-01 -6.6296886338066252e-01
      -1.6154305338590150e-01 6.4615975918914093e-01
      -1.8575754668183957e+00 2.3472861757258970e-01
      -1.0928009169316297e+00 -1.1433798439855767e+00
      2.7273664925128172e-03 1.1853679458826278e+00
      -3.2831663450786769e-01 2.2617095888952762e-01
      2.4526687557811706e+00 -6.3283496759215141e-01
      2.8141068245137785e-01 2.4366854894581727e-01
      -2.2745691960158037e+00 -9.5607534576485270e-02
      4.3313419379195151e-01 1.0599747758794149e-01
      -5.8234492137846372e-01 -1.7940143750150864e-01
      4.6583425180395310e-01 -9.7577076378555883e-01
      -1.1178335477786470e+00 -7.0571302944823916e-02
      -5.4499067078309327e-01 -3.0965818447153642e-01
      9.7563125454174415e-01 -5.1695404202953343e-01
      -1.0116114254462194e+00 3.3101825716236044e-01
      7.1256370091454121e-02 8.3214392022695027e-01
      -3.6469363226895431e-02 -5.3417334758749979e-01
      1.9096306627572895e-01 -4.0546190805937840e-03
      4.6693936913205669e-01 5.9354727542421615e-01
      -1.1229946153956520e+00 -9.2349035039055161e-01
      1.9584966370678208e-01 -1.3734861463572001e-01
      -2.5607663421944338e+00 2.0789295624799617e-01
      3.0210597844889046e-02 -2.8261694268529020e-01
      -5.2544604097394275e-02 1.0947001415484597e-01
      -1.5303003093878048e-01 9.1454603132662970e-01
      2.9117413754319371e-01 -1.2057255149925990e-01
      -9.9283368521387017e-01 -2.6462114098969108e-01
      4.7950058002929945e-02 -3.6491668672926018e-02
      2.1606758413756824e+00 -2.1844390990464541e-01
      1.7221219964207093e-01 -8.1016558751924150e-01
      -1.9602579288346283e-02 7.5336191288841292e-01
      -7.6416725628231863e-01 7.3730924816533949e-01
      -1.5976712546492078e+00 -2.0886677636009447e+00
      6.5552139298579759e-01 2.2434272777426587e+00
      -1.6456184254929065e+00 3.4019255556052480e-01
      1.0961965883868463e+00 -8.0351298904299900e-02
      4.4540936188889163e-01 -4.2422300584715966e-01
      -1.1372313462760766e+00 -1.5198778352053988e-01
      -9.7444940128877133e-01 7.5842078428109272e-01
      -1.8350844155785864e+00 -1.0428138004846861e+00
      -8.1300688501073781e-01 -9.4287491871207063e-01
      -8.0064169831892362e-01 -2.9151982401539940e-02
      7.2990460530196377e-01 2.2638783554641004e-01
      -5.4334869913575057e-01 4.4333468798146874e-01
      8.4266095244470762e-02 -9.2566486827299499e-01
      1.3726982441296482e+00 8.5081144377579376e-01
      2.8185887109367369e-01 -8.0852654916962208e-01
      5.5140021931040883e-01 -9.1601270088517084e-01
      4.4940236117626187e-01 1.1613470699661417e+00
      -1.5523812066919300e+00 -1.3801544332947726e+00
      2.6253978723221222e-01 1.0589366857300883e-01
      -1.3454830604846280e+00 1.2047036496282400e-01
      -5.9801861186292271e-01 5.8907706769796626e-02
      1.4148978371894852e-01 3.4030565218110198e-01
      -8.4092587665008423e-01 -2.7095050762398443e-01
      4.5447834401943316e-01 2.5135776214767563e-01
      -4.9238825793208629e-01 1.4108880500288792e+00
      7.0297127109984714e-01 -1.8296728160722667e-01
      1.8071146673379248e+00 1.4645728658318666e-01
      -1.0217114231132240e+00 -8.6137719934946855e-01
      4.5330537413212885e-01 -3.1232280539945706e-01
      3.0929831179482664e-01 -2.7325692670580048e-01
      -1.1782468638019177e+00 5.4571370595072943e-01
      1.3784848881299265e+00 -8.3895615448160032e-01
      1.1290669234148971e+00 -2.2471436946532286e+00
      8.9406574481233081e-01 -1.7542478820679932e+00
      8.5482708299116794e-01 1.0049886581176506e+00
      -7.6431909626024230e-01 3.2297738250515384e-01
      6.1446477369305852e-01 6.3447179261083031e-01
      1.8137926850942057e+00 2.3748030394278505e-01
      4.5712182253518563e-01 -4.0246316071723376e-01
      1.8428823045383684e+00 2.3000391263724644e+00
      -1.6639437995032251e+00 1.6775042105109674e+00
      1.7486772113201763e+00 4.2292922029804592e-01
      -6.5139321404327344e-01 -1.2625134426688631e+00
      1.6604717071257775e+00 -1.3701300518980444e+00
      2.8089873249790198e-01 -1.8856836406966631e+00
      1.2326408800646571e+00 9.2411272445381243e-01
      -7.3526256870774620e-01 1.4287344816434520e+00
      -1.7447698957038342e+00 8.6211438419639919e-01
      5.3237709738098327e-01 7.4770826886254776e-02
      -7.0628372760293368e-01 1.2059415466137400e+00
      6.4914078104122652e-01 -1.2055515701539077e+00
      5.6601463546494801e-01 -3.6290761175723979e-01
      1.3982788413317242e+00 -4.3779165289173544e-01
      6.6817344272624701e-01 6.9971084904802772e-01
      -3.3017540075026323e-02 1.0570120263358642e+00
      3.7374395014470907e-01 -1.1759242897295201e+00
      1.2036290766824103e+00 1.4388267435237279e+00
      -1.1119291027318126e+00 -2.5854511297339688e-01
      -1.3359009643488902e+00 1.6328902414640929e+00
      -4.7277388772023138e-01 -5.3984548333960813e-01
      -3.8503798646217818e-01 9.6056346912734158e-01
      -2.3539075014343228e-01 2.1194999303829135e-02
      -2.3130365494513777e-01 -3.2797932688842946e-01
      5.0358127571386202e-01 -1.2343137578343473e+00
      7.7111215979566983e-01 5.3160895896309013e-01
      -1.5060176099547689e+00 -1.8940931225720542e-01
      5.5603475132118341e-01 6.6595249627433337e-02
      -2.3820302774944044e-01 7.0731197295477710e-01
      1.3100722195837092e-01 -1.7740157764074993e-01
      -4.8577107628901151e-01 2.1729835612938056e-01
      -8.4919982735586597e-01 -3.4628466081625731e-01
      -5.9162197845263290e-02 -1.9413180395557910e+00
      -1.5111361589959776e-01 -4.3645882890387055e-01
      1.6475312611075501e+00 -7.6308033831318359e-02
      -1.0721628254807043e-01 -1.1069685521439436e+00
      -4.1959716079463161e-01 2.3625536685114100e-02
      -2.9038263775298534e-01 8.3347412047344704e-01
      -2.3799407261052877e-01 -6.3830235990714601e-01
      3.1470628626330993e-01 -3.1970256381286155e-01
      -5.1429792564962096e-01 5.6221769623313689e-01
      -7.7738846024562203e-01 -3.4618007821975483e-01
      -1.0942988070881683e-01 -2.1487167692932890e-01
      -7.0452173301552556e-01 4.0596015618426434e-02
      5.4186868977942515e-01 -1.6815125476949876e-02
      -5.3425947141130203e-01 -5.3068558374581121e-01
      3.3749823225461006e-01 -8.2577971927759411e-02
      2.2206383330838593e+00 -7.8694956390775095e-01
      -4.6120739977952502e-01 -6.9892943077906300e-01
      -1.7467924830033497e+00 1.7771475798738354e+00
      -5.0637406242426564e-01 1.8115486379302517e+00
      -1.2378836629799423e+00 -2.2984165276803881e-01
      -1.5539089748311627e-01 4.9545843614046287e-01
      -2.1631541977723637e-01 4.9416971547937177e-01
      6.7017316537011939e-01 -3.7464766804844590e-01
      1.5798146837898400e-01 3.5968932099781387e-01
      -6.5906333993731470e-01 -9.0154374317210118e-01
      4.1627511779914433e-01 -4.6401947797998770e-02
      -4.7213074749965347e-02 6.1163110157750689e-01
      1.0305847369705510e+00 -7.7919174238255895e-01
      -6.0359273559857118e-01 6.4095216185472093e-02
      9.7067291862578553e-01 1.6792528002434071e-01
      -5.9220983430025638e-02 -2.7998231332929735e+00
      -8.5007248291595605e-01 1.9711338149516981e+00
      8.0376952292674453e-01 -3.9172341350027973e-01
      -1.5455940615061645e+00 -4.9362040466508406e-01
      -1.9931239483202847e+00 -3.2942452076809389e-02
      -4.5523368064852116e-01 -5.7325062850598174e-01
      -6.2914984984657585e-01 2.2832106257674400e-01
      3.3429646497158994e-01 -6.2831405143255259e-01
      -7.3317945570781284e-01 5.0476839801395079e-01
      -1.1322290863817783e+00 -3.5842001226248538e-01
      4.8764852079739851e-01 5.4740548255146138e-01
      4.0819297098972485e-01 -1.8617043936575878e-01
      1.9157717183488987e-01 -4.6290013623537368e-01
      4.1032712782424113e-01 -1.9756503424054888e+00
      -4.3100994373115320e-01 6.7663781510422050e-01
      9.0314662498192991e-02 -1.1141758206278665e+00
      -5.2069722290152928e-02 -4.6893092984239831e-01
      4.7027501017135703e-01 4.3800637705985562e-01
      -8.6633208760211233e-01 1.0507632523859121e+00
      -3.6573897355027522e-02 -3.7760879066296316e-01
      -1.2812029715662565e+00 1.3219164558419566e-01
      8.2211242333441070e-01 -3.2271675418742585e-01
      5.0652952477669311e-01 -1.3999829217409498e+00
      1.5158084350745895e+00 4.9633002389264624e-01
      2.0806237617355261e-01 -2.1165809057185447e-01
      1.6638513291440571e-01 -7.3835175365861250e-01
      -1.7930866603453133e-01 1.6949529138872022e+00
      1.8421972124094621e+00 4.9704557314561160e-01
      -1.6466956145915351e-01 7.1837152879625599e-01
      -1.2198413091920115e+00 9.2470385729741045e-01
      6.5612662484420192e-01 3.3720591418777313e-02
      -1.9739313587449066e+00 1.3220566789844044e+00
      8.3202239889495176e-03 -8.9234607762468432e-01
      -6.5979336068218708e-01 4.6947845700459656e-01
      -9.5096088310504456e-01 1.0432978456172348e+00
      -1.4150497442423682e+00 1.3961564545459335e-02
      -4.4506888980524356e-01 -1.8335659131367674e-01
      -6.5942576799737518e-01 -4.8117035679830744e-01
      9.5051586555907064e-02 1.2264929909036895e+00
      -1.0701327594305843e-01 1.1814450325513495e+00
      -2.7803275117198895e-01 -9.4972600973915211e-01
      3.0584427706608774e-01 8.2527060410578806e-02
      -2.6898599993892708e-01 -6.6030641851737892e-01
      3.3331369988476488e-02 -1.5041475849635724e+00
      1.8957346141145975e-01 6.9224816989115601e-01
      -6.6017376504306391e-01 -4.8372970281652494e-01
      1.2380723492083439e+00 2.9770065101045318e-01
      1.0544693529165690e+00 -8.7923459876437793e-01
      8.9623218085543688e-01 -2.5762118443976173e-01
      4.0881615554482748e-01 4.3161300073692338e-01
      5.5633243582438596e-01 -4.1498213358442804e-01
      5.6441145933538628e-01 1.4801397140815842e-01
      -6.7232213257559303e-01 -3.0678191973222557e-01
      -9.7572243608908305e-01 2.7628481439840069e-01
      1.0382834726667325e+00 4.0438972100661091e-01
      -2.3644798180141696e-01 6.3254668828805127e-01
      2.5645669166251067e-01 -1.2177292590307762e+00
      -4.7084695864214648e-01 1.1721177811036887e+00
      5.5559788821094469e-01 -8.1488003394050448e-02
      -5.4311555519132138e-01 1.9759916229825561e-01
      -4.9551064954941088e-01 2.0568566218092812e+00
      4.8388332388093247e-01 -1.2663105924029855e-01
      -1.0009998116196044e+00 -3.9614131894197563e-01
      7.2920950349541536e-01 9.1002666570348623e-01
      7.9271919866636653e-01 1.2717534311463864e-02
      4.6449720261710109e-01 -1.0869159996292723e+00
      7.6296400210919602e-01 9.2472702490455783e-01
      -3.6670823040883133e-01 1.3886921260561012e-02
      6.7581388921821361e-01 -1.6038828035091135e-01
      8.5104362937301237e-01 5.9467867777821881e-01
      -2.1461428861343385e-01 2.5348821638767327e-01
      3.6174301778079831e-01 6.4502117446664717e-02
      -6.4546709249059131e-01 -5.4038643148932267e-02
      -4.2298238448266363e-02 1.0970191270231051e+00
      -7.0857477182720563e-01 -1.8312201383175822e-01
      -8.3260836033555385e-01 6.1658208647167934e-01
      -1.4332001630582533e-01 1.3352062692410342e+00
      -1.2859930705084293e+00 5.3211269190582366e-01
      1.3349187775584874e+00 4.2339259234760347e-02
      2.8414957586619351e-02 4.3157836892180096e-01
      9.5617111798320031e-01 -1.3647330324592366e+00
      7.1122094242111666e-01 -8.6776318941025499e-02
      -1.3399494257170805e+00 3.2705717042836596e-01
      -1.2045025868060102e+00 6.2183912989269474e-01
      1.0473441936494339e+00 -3.2830015782819832e-01
      -2.1830098153881919e-01 6.2685063521625251e-01
      1.3194805739810334e+00 -4.3897455603474100e-01
      -3.9347621154097623e-01 6.3699980916948518e-01
      1.1670380436600345e+00 -2.5936778788161885e-01
      1.4326822814833888e+00 -1.4600460742915916e-01
      -1.8087996617890365e-01 1.5125375125731122e-01
      1.3742326213655727e+00 2.7211258964197499e-01
      8.5121782776002086e-01 -4.3458591334042440e-01
      -4.5772073813695768e-01 1.1061108901836110e-01
      -3.5276122587267800e-01 3.4359034473131939e-01
      8.2391239327247257e-01 -1.0026881532149781e+00
      2.0078232833233967e-01 9.0674793552245569e-01
      4.0732901258254306e-01 5.5582370229202338e-01
      7.1915876545143054e-01 -2.7500205196089152e-02
      -2.6088007160325244e-01 -2.4515651659004450e-01
      2.3657046303803506e-01 1.9033720646831467e+00
      1.4005294243834363e+00 8.2856951003057594e-02
      -3.1580275761941495e-01 6.6170776071381432e-01
      1.0173363631199055e+00 2.6098682981198440e-01
      -7.0322266556040336e-01 -8.0269199097699362e-01
      6.7377344153041974e-01 1.7098565957046200e-01
      -1.2273723609786291e+00 8.4803982692054525e-01
      -1.7734160688917080e+00 2.3936676129607228e+00
      3.0571293745042138e-01 2.5237380310272423e-01
      -1.0292613049432109e+00 -7.4937906645602093e-01
      -9.8031278640140510e-02 1.8322377030795574e+00
      -1.5206343098292108e+00 1.3776753040237890e+00
      -1.4117598829471572e+00 7.9082336745549464e-01
      4.0505867935222450e-01 -8.0137885736686987e-01
      2.1414623264364123e+00 -2.6168292592049323e+00
      -1.6205079531546276e-01 -2.6584660217540612e-01
      -1.8819826162470001e+00 1.6702486371742029e-01
      2.5922747735299440e-01 4.4149701225777338e-01
      -9.9022550344259530e-01 -1.4157706725816948e+00
      2.9191086562197066e-01 -1.0636611657549548e+00
      -9.9350490466149077e-01 -1.2584569590298791e+00
      -1.0846588072200654e+00 1.7223351888797056e+00
      1.3829637145062980e-02 2.4318181958871984e-01
      1.8287253724741376e-01 1.3104562084018723e+00
      -2.4143208428327667e-01 -9.2769111566481277e-01
      -5.9728030626839290e-01 -2.4979672045849763e-02
      -2.4232443321342120e-01 -1.7651521385289541e+00
      5.5708684841971029e-02 1.7288442416356289e-01
      2.6941876865937440e+00 -1.0297877078470212e+00
      -9.8485751103402563e-01 1.3390173384772486e+00
      2.1406434290266732e-01 -1.1849905005454113e+00
      -2.2577907476377508e+00 -3.4160586990113634e-01
      -3.8726722415537373e-01 -6.1686359895515774e-01
      9.8026394594422528e-01 -8.7360662599318861e-01
      -8.1606951300102870e-01 7.2688767773208252e-01
      4.7467931365679644e-01 -1.7768403579605245e+00
      -3.7424115776002531e-01 -8.5121237483838630e-01
      4.2153693236642575e-01 -2.2076270795156498e-02
      -8.8305613771636024e-02 4.8294606488259834e-01
      1.5076023433459447e+00 7.0511681993085318e-01
      -1.6880885836461581e+00 -9.9719888987892391e-01
      9.0618061128798910e-01 -3.0265913009833995e-01
      -5.5799679643770772e-01 3.9057351090126918e-01
      1.3611228621381839e+00 3.8359857377115986e-01
      4.9818925316964913e-01 1.8234231083326979e-01
      -1.0561373842653172e+00 -1.7733185240608598e+00
      -4.3810306062217780e-02 1.5791630384405873e+00
      1.1844604390817652e+00 -4.8862654007077858e-02
      1.5258198484495546e+00 7.6161553884380284e-01
      1.1175716010311094e+00 9.9454295470117648e-01
      1.1021453245816890e+00 4.3743803271697868e-01
      -1.4165547769751230e+00 1.9279730468699396e-01
      -1.7753969627245587e+00 -5.4225780306358232e-02
      -7.4953803598871427e-01 5.3693964252166582e-01
      1.2936711356762634e-01 8.7522975990310681e-01
      -1.3285026186171411e+00 2.9345887578059543e-01
      1.2002246150558578e+00 7.5218743083226058e-01
      -7.5239265367507302e-01 7.9211104596989601e-01
      -1.6681604143365175e-01 5.0747712350017282e-01
      6.2683732956406202e-01 6.3580800536357596e-01
      -1.1366892718010242e+00 -9.6798884767085658e-01
      1.4267921379145980e+00 1.4150730413485912e+00
      6.6656204021652357e-02 6.4769653613981026e-01
      -4.5759332629058835e-01 -5.2128560029811144e-01
      8.4861618713304521e-01 -1.1011253931355873e+00
      -1.9231454633392782e+00 -4.5263910086597103e-01
      1.0248081474681825e+00 5.1482923944007331e-02
      6.9848857251831042e-01 -1.8937728233203702e-01
      -6.1403987387771908e-01 5.5430397383990904e-01
      1.6262475071528326e-01 3.0319129666840999e-01
      -1.6445634998514718e+00 2.6228989453077034e-01
      1.6632856725189640e+00 -6.2896361105506460e-01
